73 100
, -0.00052300585 0.00021778331 0.0050877216 0.009023156 -0.009294636 -0.007151774 0.0064971657 0.009053664 -0.0050706207 -0.0038005821 0.0073241345 -0.0015666785 -0.004551557 0.0065694298 -0.0048463047 -0.0018240198 0.0028755676 0.00097187224 -0.008293977 -0.009508443 0.0073355595 0.005103682 0.006802905 0.00074622914 0.0063383426 -0.0033855806 -0.0009837493 0.005788348 -0.007547283 -0.0038841637 -0.0074903043 -0.0009299399 0.009536269 -0.0073712217 -0.0023411503 -0.0018958116 0.00808523 -0.005938619 1.8967994e-05 -0.0047657434 -0.009603196 0.0049896063 -0.008777829 -0.0043679695 8.175521e-06 -0.00029091586 -0.0076941694 0.009595938 0.0049988255 0.009225036 -0.0081332605 0.0044657146 -0.0041244538 0.0007828689 0.008487142 -0.0044581015 0.0045103626 -0.006803506 -0.0035691876 0.009424787 -0.0015693603 0.00029292362 -0.0041316487 -0.0076560467 -0.0014997079 0.0025153086 -0.0009052515 0.005578975 -0.002796546 0.0022812304 0.0054434408 0.0083800815 -0.0014301072 -0.009219175 0.004387886 0.0005444408 0.0074607227 -0.0008288826 -0.0026241278 -0.00877043 -0.00088184024 0.0028307359 0.0053600795 0.00706466 -0.0057138153 0.0018283814 0.006116226 -0.0047765723 -0.0030900196 0.006810415 0.0017053388 0.00017655185 0.003475697 0.00019945977 0.009646099 0.0050547263 -0.008903783 -0.007059098 0.0009332577 0.0063755773
and -0.008618374 0.0036593135 0.0051874015 0.0057431604 0.00746362 -0.0061847228 0.0011272765 0.006085611 -0.002858821 -0.0061946316 -0.00042830117 -0.008392666 -0.005607763 0.0071124774 0.0033575802 0.0072210003 0.0067942985 0.0075205904 -0.0037928878 -0.0005896514 0.0023594622 -0.004505629 0.008398674 -0.009847066 0.006759982 0.0029234057 -0.0049438514 0.004402475 -0.001753367 0.0067247655 0.009967153 -0.004358516 -0.0005924514 -0.0057222005 0.003846091 0.0028078323 0.006898149 0.006101036 0.009519835 0.009267264 0.00789908 -0.006994212 -0.009166736 -0.00034416985 -0.0030828333 0.007880604 0.0059257788 -0.0015542539 0.0015185617 0.0018008524 0.007822148 -0.009529925 -0.00020318272 0.0034468446 -0.0009345913 0.00838112 0.009001258 0.0065281875 -0.0007184188 0.0077187316 -0.008538602 0.0031927284 -0.004625887 -0.0050834287 0.0035852606 0.00539305 0.007760105 -0.0057419175 0.0074087353 0.0066349967 -0.003704625 -0.008721028 0.0054510217 0.00650355 -0.00076719903 -0.0067142583 -0.007074231 -0.002507411 0.0051480965 -0.0036699267 -0.00938317 0.0038299419 0.0048609925 -0.006420184 0.0011994267 -0.002089212 4.2356012e-05 -0.009872897 0.0026977325 -0.0047391187 0.0011133447 -0.0015807347 0.0022040515 -0.007885722 -0.0026991512 0.0026664203 0.0053605023 -0.0024033093 -0.009493649 0.0044993623
the 0.00011261897 0.0030727962 -0.006871873 -0.0013648141 0.0076772687 0.007303828 -0.003610972 0.002769618 -0.008376281 0.006170537 -0.004700252 -0.003205403 0.009302093 0.0008982934 0.0075158887 -0.0061144303 0.00516141 0.0099179 -0.0084754955 -0.0051937113 -0.007031905 -0.004842321 -0.0037052508 -0.008547863 0.007962945 -0.0048415144 0.008382268 0.005278704 -0.006604132 0.0040038167 0.005495857 -0.0074464884 -0.007377045 -0.0025674012 -0.0086411955 -0.0015209353 -0.00040227882 0.003311773 0.0013931657 -0.0008929587 -0.0056199855 0.001734347 -0.0009151866 0.0068186237 0.004022476 0.004520635 0.0013898124 -0.0027170298 -0.004352078 -0.0010209217 0.0014839561 -0.0027077964 -0.007086698 -0.007897898 -0.009113324 -0.005959046 -0.0018633666 -0.004354552 -0.0064925696 -0.0037027784 0.004284356 -0.0038012408 0.008418127 0.0015587903 -0.0072559994 0.009501833 0.0076148673 0.0055652047 -0.0069371955 0.005875588 0.0040095607 0.0052396585 0.0043007024 0.0019295987 -0.0031139473 0.008323254 0.009656385 0.0037625215 -0.0028177812 -1.0820577e-05 0.0011653393 -0.008452105 -0.008304285 -0.0002230703 0.0011985494 -0.005812614 -0.0046760663 -0.007341295 0.008345885 0.00015894984 -0.0044342997 0.0056873034 0.009210745 -0.0041397028 0.008028427 0.0053649503 0.005916718 0.0005108821 0.00824587 -0.0070713456
was -0.008227801 0.009288212 -0.00021101383 -0.0019541087 0.0046134624 -0.0041178023 0.0027680723 0.0069939145 0.0060223434 -0.007528661 0.009353669 0.0046521984 0.003973335 -0.0062375697 0.008481973 -0.0021572923 0.008833246 -0.005376519 -0.008151038 0.0067684893 0.0016902793 -0.002172564 0.009549465 0.009468967 -0.009791497 0.0025108578 0.006130062 0.003885774 0.0019976024 0.00045540917 0.00068849506 -0.0038223949 -0.0071407254 -0.0021174108 0.0039160433 0.008841045 0.009262444 -0.005984785 -0.009427568 0.009749486 0.0034304096 0.0051556933 0.0062833973 -0.0027803055 0.007360053 0.002838518 0.0028307477 -0.0023914117 -0.0031143543 -0.0023668471 0.0042872303 4.5824174e-05 -0.009577221 -0.0096976925 -0.0061636386 -0.00012495037 0.0019943947 0.009426761 0.0055546756 -0.0042738584 0.000292758 0.0049454975 0.0077108564 -0.0011214126 0.0043209614 -0.0057621873 -0.00082450843 0.008139399 -0.0024043068 -0.009649863 0.0057719904 -0.003897041 -0.0011988949 0.009969399 -0.0022398825 -0.0047711134 -0.005301454 0.0069758464 -0.005705478 0.002089946 -0.005276613 0.0061276327 0.0043037916 0.0026327204 -0.0015011518 -0.0027636553 0.009014715 0.0052367114 -0.002150269 -0.009458621 -0.0073720533 -0.0010692223 -0.00080411194 -0.0025636975 0.009708944 -0.00045980196 0.005887088 -0.0074645937 -0.0024885337 -0.005572652
of -0.007142064 0.0012477153 -0.0072062314 -0.002235524 0.0037178383 0.0058052377 0.001224185 0.0021372878 -0.0041508027 0.0072056176 -0.006327427 0.004634669 -0.008229719 0.0020463194 -0.004960634 -0.004267329 -0.0031081606 0.0056561157 0.005788512 -0.0049871486 0.0007713191 -0.008498148 0.00783203 0.009242899 -0.0027437087 0.0008005061 0.0007320231 0.0054800645 -0.008627132 0.00059803 0.0068774982 0.0022227676 0.0011236598 -0.009349019 0.008474953 -0.006250777 -0.0029826309 0.0035023643 -0.0007774849 0.001415709 0.0017715748 -0.0068200245 -0.009729006 0.00904071 0.0062110806 -0.006918303 0.003379891 0.0002115643 0.0047652004 -0.0071258694 0.0040452443 0.0043334933 0.009961877 -0.004498761 -0.0013863586 -0.007322006 -0.009686113 -0.009083228 -0.0010422139 -0.0064954795 0.0048435004 -0.0061830194 0.0025162383 0.00074431923 -0.0033828095 -0.00095875957 0.009960104 0.009159742 -0.0044878917 0.0090914 -0.0056595663 0.0059524025 -0.0030782032 0.0034205304 0.0030385207 0.0068868 -0.0023704008 0.008777776 0.007602143 -0.009560964 -0.008025795 -0.0076355 0.0029055332 -0.002786547 -0.006940856 -0.00814516 0.008325618 0.0020031377 -0.009308364 -0.004772087 0.0031637982 -0.004709266 0.0052888906 -0.0042517404 0.0026679176 -0.008050162 0.0062202 0.0048087584 0.00080761313 0.0029947958
. -0.008730979 0.0021304807 -0.0008734861 -0.009317571 -0.009432998 -0.0014223737 0.0044412394 0.0037198055 -0.0065090335 -0.00688733 -0.0050057354 -0.002295559 -0.007256689 -0.009600952 -0.0027423303 -0.0083657615 -0.00603906 -0.005672185 -0.002345861 -0.0017136678 -0.008958942 -0.0007313529 0.00815319 0.0076968395 -0.0072068037 -0.0036630451 0.0031074686 -0.009566967 0.0014783654 0.0065337485 0.0057435683 -0.008760328 -0.004516818 -0.008145257 4.6739235e-05 0.009274677 0.0059808 0.005063326 0.0050580697 -0.0032359934 0.009551358 -0.007358025 -0.007279906 -0.0022671511 -0.00077875983 -0.0032219472 -0.000590264 0.007488757 -0.0007011017 -0.0016247411 0.002751071 -0.0083621 0.007856729 0.008534682 -0.0095858695 0.0024480552 0.009910901 -0.007668395 -0.0069610057 -0.007728364 0.00838912 -0.00068780896 0.009146169 -0.008162801 0.0037467014 0.0026369146 0.0007442196 0.0023274897 -0.007479771 -0.009357401 0.0023509066 0.0061533246 0.007984073 0.0057316055 -0.00077497406 0.008306226 -0.009339602 0.003405365 0.00026441133 0.0038602855 0.007379851 -0.006720227 0.0055934708 -0.009518734 -0.00080761116 -0.008688509 -0.0050922404 0.009290573 -0.0018521155 0.0029217259 0.009077649 0.008934067 -0.008208006 -0.003019237 0.009890649 0.005103251 -0.0015769695 -0.008698921 0.0029707486 -0.0066715237
had 0.008132145 -0.004458366 -0.0010882404 0.0010203231 -0.00018157011 0.001118813 0.00614973 4.1568237e-05 -0.0033036047 -0.0015405391 0.0058665103 0.0014724493 -0.00071657106 0.009349027 -0.0049020695 -0.00084656687 0.009178066 0.006741757 0.0014864872 -0.008937201 0.0011563255 -0.00227201 0.009388536 0.0011982714 0.0014871804 0.0024091 -0.0018531353 -0.0049919714 0.00020842212 -0.0019894561 0.006616187 0.008940784 -0.00067043153 0.0029418257 -0.006126805 0.0017481751 -0.006911748 -0.008693513 -0.005927557 -0.008968247 0.007279506 -0.0057784696 0.00826112 -0.0072263856 0.003452521 0.009668972 -0.007810106 -0.009964097 -0.0043176366 -0.0026799138 -0.00025832333 -0.008856698 -0.008622313 0.0027701133 -0.008217863 -0.009077004 -0.0023414982 -0.00864699 -0.0070813727 -0.008387561 -0.00029619358 -0.004589209 0.00664662 0.0015378506 -0.0033505103 0.006151519 -0.006035519 -0.0046229083 -0.007252054 -0.0043184855 -0.0018165513 0.006526181 -0.0027472558 0.004913856 0.0069295564 -0.007477052 0.0045866864 0.0061193565 -0.0029486932 0.006620567 0.006111594 -0.0064475923 -0.00680565 0.0025549608 -0.0016379592 -0.0060889833 0.009518142 -0.005114715 -0.00652242 -9.781029e-05 -0.0026615595 0.00044841797 -0.0035239921 -0.0004306227 -0.00067158614 0.0008259531 0.0082152765 -0.005758116 -0.0016178574 0.0055490164
his 0.008183412 -0.004448995 0.00895494 0.008273946 -0.004416496 0.00026847672 0.004306801 -0.0038487243 -0.0056310804 -0.0065413606 -0.00071698683 -0.0003411471 0.004466215 -0.0024560515 -0.00014311241 0.0024444142 0.00485793 -3.5507837e-05 -0.0063586906 -0.009329258 3.674438e-05 0.006686981 0.0015010784 -0.008984622 -0.0079556685 0.006567798 -0.003824143 0.0062623215 -0.006706855 0.008519165 -0.0065001035 0.0032775777 -0.0010629867 -0.0068406197 -0.0032920137 -0.0011101841 -0.0054547973 -0.0012143037 -0.0075980765 0.0026316012 0.009069528 -0.0024007391 -0.0009932164 0.003550622 0.008708741 -0.0059180646 -0.0069382233 -0.0029400336 0.009156211 0.0008569654 -0.008641914 -0.0014892636 0.0094933985 -0.007591595 -0.005375013 0.009322314 -0.008976165 0.0038018283 0.00062364334 0.0066736443 0.008319294 -0.0028827179 -0.0039785667 0.008920194 0.0020988637 0.0063072587 -0.009464974 0.009647152 -0.0014070919 -0.0060279286 0.0029675888 -0.00040946619 0.0047351634 -0.0022950408 -0.004118647 0.002270679 0.008379651 -0.004998085 0.0026919434 -0.008009411 -0.0068059093 -0.00047324057 -0.008821566 0.002795876 0.0015761316 -0.0023428733 0.0050275903 0.009764745 0.008487697 -0.0018506602 0.0021270078 -0.0039993217 -0.008241148 0.00627161 -0.0019091826 -0.0006707788 -0.0017522543 -0.004546242 0.0040893527 -0.0042962553
he -0.009572776 0.008939894 0.004136883 0.009239108 0.006647142 0.002892564 0.009839418 -0.004356369 -0.0068483 0.004207329 0.0036851584 -0.0056918506 0.009712366 -0.0035554925 0.009572162 0.00080614875 -0.0063370657 -0.0019950918 -0.007397167 -0.0030332638 0.0010684413 0.009507874 0.009401303 -0.0066057383 0.0034617567 0.0022846817 -0.0025133458 -0.009208047 0.0009840179 -0.008139489 0.0063365153 -0.0057960013 0.0055468054 0.009784278 -0.00016534052 0.0045583947 -0.0018118732 0.007361807 0.0039072977 -0.009021191 -0.0024051827 0.0036348365 -0.00010366922 -0.0011820111 -0.0010225923 -0.0016776026 0.00057381624 0.004147672 -0.0042398446 -0.0038295789 -2.724009e-05 0.00022986988 -0.00016529555 -0.0048429514 0.004317057 -0.0021862327 0.002094502 0.0006610209 0.0059407772 -0.006824832 -0.006807572 -0.0045086145 0.009451832 -0.0015742645 -0.009435894 -0.00048938877 -0.0044655413 0.0060471934 -0.009641944 0.002889273 -0.00926195 0.0012879369 0.006030626 0.0073876567 -0.007590991 -0.0060681994 -0.006806957 -0.007931005 -0.009486486 -0.002150301 -0.00087568647 -0.00723144 0.0067198556 0.001139106 0.0058046887 0.0014300663 0.00082706526 -0.007339895 -0.0021668295 0.00433679 -0.0050306744 0.0011161219 0.0028901862 -0.0015521022 0.009976625 0.008338576 0.0024449318 0.007100278 0.005909824 -0.0056199655
a -0.005131088 -0.0066806455 -0.0078003197 0.0083299875 -0.0019713663 -0.00688759 -0.004108054 0.005222543 -0.0029317266 -0.0037781326 0.0015664721 -0.0028160573 -0.001583398 0.0010766862 -0.0029448955 0.008501517 0.0039060619 -0.0099822795 0.0062383846 -0.0068340506 0.0008010459 0.0044456366 -0.005052847 -0.0021362004 0.008072236 -0.0042313887 -0.0076755 0.009279913 -0.0021993343 -0.004680693 0.008593856 0.004281362 0.004334809 0.009227224 -0.008465894 0.0052922615 0.0020368318 0.0041904524 0.001658255 0.0044403146 0.0044913236 0.006089192 -0.0032136468 -0.0045295106 -0.00037008847 0.0025352982 -0.0033162674 0.006030634 0.004168323 0.007768981 0.002587798 0.008071331 -0.0013661706 0.008010506 0.003707569 -0.008051662 -0.0039552134 -0.0024820587 0.004847918 -0.00084864313 -0.0028162366 0.0078048455 0.009334573 -0.001588921 -0.005167393 -0.004632889 -0.0048643514 -0.009532488 0.0013088739 -0.0042008506 0.002501824 0.0056636888 -0.0040294267 -0.009613286 0.001580973 -0.006716175 0.00252857 -0.003795432 0.0070884996 0.0006048987 0.0035266182 -0.0027286732 -0.001790625 0.007682674 0.0013902159 -0.0058864076 -0.007792649 0.0012604069 0.006467572 0.0055700843 -0.008903225 0.008575929 0.004049709 0.007462469 0.009793094 -0.0072965506 -0.009016381 0.00582216 0.009422052 0.0034670143
with 0.00709148 -0.0015742301 0.007942043 -0.009492855 -0.008027363 -0.0066590826 -0.0039912723 0.005020783 -0.0038327426 -0.008336328 0.008393229 -0.0037596512 0.0085987495 -0.0048899096 0.003919826 0.0049155336 0.0023907067 -0.0028273384 0.0028394433 -0.00827817 -0.0027598913 -0.002577938 0.007265782 -0.0034680984 -0.0066054305 0.0043535926 -0.00048500736 -0.0035955154 0.0068761506 0.0038877253 -0.003891683 0.0007763003 0.009139586 0.0077379416 0.0063645123 0.0046797204 0.002390183 -0.0018459938 -0.0063819825 -0.00030696363 -0.0015643542 -0.00057596667 -0.0062700994 0.007439928 -0.006579471 -0.0072401348 -0.002768278 -0.001520838 -0.007629145 0.0006987913 -0.005319838 -0.0012935634 -0.007360607 0.0019482675 0.0032698112 -2.1307123e-05 -0.005446922 -0.0017323154 0.007080587 0.0037478844 -0.008875752 -0.0034229306 0.0023648022 0.0021456406 -0.00945812 0.004591804 -0.008666202 -0.0073722173 0.0034607009 -0.0034638634 0.0035626167 0.008909755 -0.0035629922 0.009316645 0.0017129194 0.009837191 0.005715216 -0.009156969 -0.0033204285 0.006522128 0.005591244 0.008710527 0.0069028973 0.008041061 -0.009828577 0.004282576 -0.0050163735 0.003522251 0.0060592312 0.0043984842 0.0075342474 0.0014967358 -0.0012615538 0.0057614185 -0.0056290836 3.891504e-05 0.009467989 -0.005493441 0.0038228275 -0.008121369
that 0.009769475 0.008163897 0.0012774783 0.0050986907 0.0014059942 -0.006470673 -0.0014147495 0.0064732283 -0.0046300725 -0.004008167 0.0049137305 0.002702386 -0.0018564912 -0.0028720112 0.006013339 -0.005723809 -0.0032385834 -0.0064925137 -0.0042398907 -0.008592346 -0.00446579 -0.008503469 0.0014145353 -0.008616807 -0.009915175 -0.008196819 -0.0067834104 0.0066834097 0.0037774588 0.00036786805 -0.002956038 -0.0074255476 0.00053725863 0.00048727464 0.00019274201 0.0008646801 0.00078916945 -6.982987e-05 -0.008014425 -0.005872253 -0.008387831 -0.0013095193 0.0018119779 0.0074172257 -0.0019586459 -0.0023294715 0.009484884 7.681606e-05 -0.002403952 0.008609278 0.0026932901 -0.005354309 0.0065885475 0.0044960845 -0.007052295 -0.00032671995 0.00083424663 0.0057416456 -0.0017194145 -0.0027988115 0.0017452092 0.0008381912 0.0011985395 -0.002636958 -0.0059846537 0.0073339054 0.0075852075 0.008304544 -0.008616018 0.002641819 -0.0035623577 0.009632107 0.0029089379 0.004635331 0.0023929437 0.006602417 -0.005739226 0.007887543 -0.0024095632 -0.0045641474 -0.0020682744 0.009737722 -0.0068647005 -0.002187955 0.006996726 -6.591897e-05 -0.0062826485 -0.0063926093 0.008943937 0.0064375536 0.0047866 -0.0032659576 -0.009262204 0.0037770658 0.0071711023 -0.0056330436 -0.007857206 -0.002980166 -0.004923421 -0.0023193287
very -0.0019305595 -0.005258194 0.009435941 -0.009296804 0.0045180554 0.0053771245 -0.0013694875 0.009082881 0.009868668 -0.0055226902 -0.0060573695 -0.0068019005 -0.007904763 -0.0030509697 -0.0055700927 -0.008370125 0.0007712044 0.0029999372 0.006411063 -0.0026700287 -0.0044434816 0.0012598801 0.0004206491 0.008120273 0.00016776143 0.0072605344 -0.008310076 0.008443272 -0.0019053558 0.008747531 -0.007616646 0.0017800997 0.0010700139 8.842344e-06 -0.005109869 -0.0092028715 -0.007248044 -0.007935481 0.0018833665 0.00048662862 -0.0018191364 0.0071227653 -0.0025056615 -0.0013252847 -0.008890852 -0.009956744 0.008940253 -0.0057781204 -0.006378116 0.005210269 0.0067137186 -0.006875501 0.00096449256 -0.006059567 0.0016392969 -0.0042972635 -0.0034374876 0.002178329 0.008653621 0.006749048 -0.009703236 -0.0056426 0.007905765 0.0019847972 -0.0042626597 0.0006314459 0.009532924 -0.0010753366 -0.009474833 0.0016151689 0.0062182895 0.00631852 0.0041082655 -0.0056520277 -0.000345592 -5.6094e-05 0.004581526 -0.008055689 -0.008027085 0.00027019813 -0.008653012 0.0058424654 -0.0004336761 0.009977392 -0.005370224 -0.0005095958 0.007787653 -0.004069538 -0.0050075483 0.0016089056 0.0026900899 -0.002565139 0.0064691342 -0.007688746 0.003442643 0.00047893598 0.008772819 0.005982064 0.006830942 0.0078122877
End -0.009500558 0.009563503 -0.0077826492 -0.0026398196 -0.0049050148 -0.004976038 -0.008010059 -0.0077574053 -0.0045660883 -0.0012833357 -0.005112343 0.006131912 -0.009516034 -0.0053020045 0.00944462 0.0069849193 0.0076791393 0.004228418 0.0005001092 -0.0059946245 0.006026054 0.0026393565 0.007713993 0.0063910005 0.007943505 0.00865333 -0.00990239 -0.006747095 0.0013230839 0.006444483 0.0073786913 0.005513945 0.007668957 -0.005144294 0.006579568 -0.0040968284 -0.009053777 0.009143114 0.0013204323 -0.0027609474 -0.0024828005 -0.0042159045 0.0048092757 0.0044050305 -0.0026402478 -0.00734381 -0.0035766424 -0.00034039523 0.0061021456 -0.0028312742 -0.000114089315 0.00086756964 -0.0070991847 0.0020427275 -0.001426448 0.0027951568 0.004836715 -0.0013531765 -0.0027885402 0.0077426997 0.0050455793 0.006700801 0.0045225373 0.008670942 0.0074683162 -0.0010698836 0.008741993 0.0046183835 0.005424603 -0.0013738668 -0.002040421 -0.004412549 -0.008504346 0.003034063 0.008896464 0.008911811 -0.0019300289 0.006076471 0.0037834032 -0.0043028556 0.0020327622 -0.0054343916 0.008186039 0.0054396032 0.0031763273 0.0040873806 0.008665845 0.0072753998 -0.0008291491 -0.0070633288 0.008394765 0.0072294166 0.0017363895 -0.0013528814 -0.005873409 -0.004535213 0.008654848 -0.0031349612 -0.0063296375 0.009854894
Bag 0.007703209 0.009117438 0.0011306053 -0.0083205765 0.008426069 -0.0037060778 0.005752161 0.0044083605 0.00968204 -0.009298435 0.009197088 -0.009289184 -0.006909542 -0.009102565 -0.005538514 0.0073640537 0.009159532 -0.0033348347 0.00371738 -0.0036418824 0.00789173 0.0058806674 1.0789336e-05 -0.0036366128 -0.00722827 0.0047703194 0.0014461683 -0.0026089407 0.007824928 -0.0040408387 -0.009144442 -0.0022538088 0.00013175471 -0.0066495542 -0.0054918304 -0.008489866 0.009228453 0.0074281935 -0.00030378372 0.007362508 0.007953086 -0.00078433286 0.0066077774 0.003776967 0.0050892932 0.007253338 -0.004752242 -0.0021924893 0.000878024 0.004238259 0.0033094382 0.0050891936 0.0045922655 -0.008455681 -0.003184635 -0.0072414135 0.009680178 0.005005875 0.0001597794 0.004122431 -0.0076505765 -0.0062968773 0.003077196 0.006534819 0.00394887 0.0060313954 -0.0019906848 -0.0033309604 0.00019417253 -0.0031906052 -0.005525298 -0.0077788783 0.006541253 -0.001096172 -0.001880257 -0.0078099114 0.00934432 0.0008643208 0.0017704392 0.002483533 -0.0073916772 0.0016441835 0.0029554188 -0.008559056 0.0049524074 0.0024267572 0.007510053 0.0050526145 -0.0030312992 -0.0071589593 0.0071127512 0.0018999238 0.005201183 0.00637821 0.0019251562 -0.006129855 -5.2165774e-06 0.008266824 -0.0060945447 0.009428025
Bilbo -0.0071930937 0.0042344136 0.0021560106 0.0074445093 -0.0048893397 -0.0045736535 -0.006090594 0.003314359 -0.0045073787 0.008518422 -0.004291799 -0.009112324 -0.0048151067 0.006420531 -0.0063667702 -0.0052658445 -0.0073029995 0.0060189203 0.0033533075 0.0028385986 -0.0031323405 0.0060320543 -0.0061440514 -0.0019830416 -0.00598605 -0.0009954837 -0.0020294846 0.008491955 7.260375e-05 -0.008574865 -0.0054260376 -0.006874452 0.0026985148 0.009450503 -0.0058150794 0.00826907 0.008536482 -0.0070622633 -0.008890375 0.009472968 0.008372482 -0.004687443 -0.0067278077 0.007843033 0.0037672014 0.008089505 -0.0075767017 -0.00952637 0.0015837271 -0.009802117 -0.00487966 -0.0034673447 0.009622889 0.008613823 -0.0028274958 0.005824215 0.0082394 -0.0022597695 0.009528436 0.0071666217 0.0020396498 -0.0038583474 -0.0050771874 -0.0030514547 0.007883615 -0.0061856676 -0.0029203007 0.009197369 0.003446008 0.006081758 -0.008037442 -0.00074715447 0.0055301185 -0.0047178655 0.00748267 0.009315303 -0.0004020521 -0.0020675436 -0.0005920852 -0.005789481 -0.008396323 -0.0014985222 -0.0025707944 0.00438963 -0.006875079 0.0054069716 -0.0067409566 -0.007816148 0.008474659 0.008927843 -0.003471975 0.0034894033 -0.0057947114 -0.008754726 -0.0055054845 0.006744068 0.0064272378 0.00943973 0.0070609096 0.0067464383
Hobbiton 0.0012993554 -0.009812733 0.004579621 -0.00053387793 0.0063333386 0.0017695348 -0.0031234964 0.0077725276 0.0015260134 5.198509e-05 -0.0046249777 -0.008457567 -0.007761049 0.008680025 -0.008922331 0.0090307025 -0.009278333 -0.00028404567 -0.0019093816 -0.008950444 0.008636809 0.0067836223 0.003036034 0.004822237 0.00010417702 0.009428436 0.007016036 -0.009851508 -0.0044382247 -0.0012805826 0.0030583292 -0.0043168976 0.0014445072 -0.007853559 0.0027818345 0.0047111153 0.0049359836 -0.0031803946 -0.008432929 -0.0092272535 -0.0007185878 -0.007337051 -0.0068134903 0.0061278963 0.007185022 0.0021192506 -0.007915113 -0.005702071 0.008060711 0.0039122533 -0.005235066 -0.007396452 0.00077798485 0.0034597982 0.0020771064 0.003108566 -0.0056214565 -0.009895123 -0.0070313904 0.00023080988 0.0046237814 0.004513449 0.0018793839 0.0051820683 -0.000102551734 0.0041355705 -0.0091380095 0.007707936 0.0061356276 0.0051352694 0.00719852 0.00844787 0.000745154 -0.0017056918 0.00052176457 -0.00932215 0.008418543 -0.006377968 0.008441065 -0.0042490964 0.000640768 -0.009161239 -0.009576416 -0.007833886 -0.007735987 0.000367964 -0.007221678 -0.0049360627 -0.005260639 -0.004279584 0.0070333835 0.0048243324 0.008674131 0.0070894533 -0.0056932066 0.0072365175 -0.009286503 -0.002599912 -0.0077478704 0.004181462
in 0.0017947921 0.0070430925 0.0029344049 -0.0069815116 0.0077080657 -0.006015319 0.009011288 0.0029891857 -0.00404321 -0.0047052894 -0.004431983 -0.00615486 0.009376784 -0.0026423964 0.007779971 -0.009692342 0.0021070847 -0.001245429 0.007538125 -0.009072681 0.0074455086 -0.005097698 -0.0059920223 -0.0056526624 -0.0033831846 -0.0034056928 -0.0032051287 -0.007488011 0.00069796096 -0.0005627972 -0.0016743591 0.0037625004 -0.0076224445 -0.0032414289 0.0051569883 0.00856282 -0.009806518 0.007192348 0.005295496 -0.0038850005 0.008577911 -0.0092254225 0.007243214 0.00536645 0.001307028 -0.0052032396 -0.0041923844 -0.0033590447 0.0016131513 0.0015834542 0.0073972153 0.009961057 0.00887046 -0.0040209373 0.009644398 -0.00062689563 0.0048631052 0.0025406783 -0.0006409216 0.0036706808 -0.005316677 -0.0057742577 -0.0075940927 0.0019107169 0.0065297335 0.0009070508 0.0012438567 0.003186322 0.008109065 -0.0076877153 0.0022554486 -0.0074516106 0.003721287 0.009507323 0.007533691 0.006421513 0.008022455 0.0065471283 0.006868505 0.008677927 -0.004957417 0.009220488 0.0050369804 -0.002125823 0.008476227 0.0050623384 0.0096618375 0.0028436594 0.009877566 0.0012110738 0.00915586 0.0035827202 0.006560436 -0.0036244965 0.006805892 0.007239716 -0.0021225156 -0.0018769632 0.0036224923 -0.007052196
excitement 0.009734013 -0.009782466 -0.0065023615 0.0027804133 0.0064306995 -0.00537809 0.002760235 0.009134495 -0.00682935 -0.0061072023 -0.005000644 -0.0036843787 0.0018486227 0.009684156 0.0064376406 0.00039036068 0.0024690172 0.008437388 0.009128661 0.005617031 0.005950203 -0.007617065 -0.00381589 -0.0056808353 0.006175804 -0.002247131 -0.008785939 0.0076197754 0.0083961 -0.003309751 0.009119959 -0.0007334148 -0.0036284933 -0.00039421176 0.00019634554 -0.0034966127 0.0028149711 0.0057281656 0.006861125 -0.008904938 -0.0021893522 -0.0054848585 0.007518223 0.0065030116 -0.004356784 0.0023222477 -0.005956145 0.00023282868 0.009464062 -0.002612241 -0.0051813265 -0.0074080285 -0.0029087404 -0.0008695938 0.0035270029 0.009743156 -0.003390243 0.0018966184 0.009677678 0.0015324494 0.0009855339 0.009792641 0.009300701 0.007711934 -0.0061660693 0.009998194 0.005844202 0.009078109 -0.0020092614 0.0033555462 0.006830788 -0.003883219 0.0066503035 0.0025624451 0.009316397 -0.0030381475 -0.0031044022 0.0062135104 -0.00906986 -0.007253188 -0.0065077874 -0.0007435884 -0.002372917 0.0068136184 0.0092300065 -0.0009219895 0.0014190956 0.0020281023 -0.0020151665 -0.008028945 0.007454072 -0.004299399 0.004574527 0.00908085 0.0030492623 0.0031347165 0.0040725856 -0.002709368 0.0038299689 0.00033214837
talk 0.005626712 0.005497371 0.0018291199 0.0057494068 -0.008968078 0.0065593575 0.009225992 -0.0042071473 0.0016075504 -0.0052338815 0.0010582185 0.0027701687 0.008160736 0.00054401276 0.0025570584 0.001297735 0.008402523 -0.0057077026 -0.00626183 -0.0036275184 -0.0023005498 0.005041063 -0.008120357 -0.0028335357 -0.008197427 0.00514971 -0.0025680638 -0.009067107 0.0040717293 0.009017323 -0.0030376601 -0.0058385395 0.0030198884 -0.00043584823 -0.009979436 0.008417704 -0.0073388875 -0.004930407 -0.002657081 -0.0054523144 0.00171651 0.009712814 0.0045722723 0.008088603 -0.00047045827 0.0006449234 -0.002668352 -0.008779561 0.0034313034 0.0020933736 -0.009421854 -0.004968437 -0.009734099 -0.0057197916 0.0040645422 0.008642861 0.00411165 0.0023884643 0.008144778 -0.0011192096 -0.0013977134 -0.008746823 -0.00012579202 -0.0025675725 0.00038607715 0.007279662 -0.0070414604 -0.0039464748 -0.0066646053 -0.0035441148 -0.0033158315 0.002137121 0.0033281683 -0.004957187 -0.0045462907 0.0011386942 0.0054534827 0.0053736498 -0.0029685367 -0.0042665256 -0.005616647 -0.00054498314 0.001946373 0.0015253461 0.0073525296 -0.0027333724 -6.592393e-05 -0.0055276332 -0.0011700654 -0.0077119637 -0.0009593296 0.0013096749 -0.008594744 0.0087485835 -0.009207866 -0.009624677 -0.008511624 0.0073132683 0.0054655685 0.009249462
rich 0.002582872 0.0008538996 -0.0025455104 0.009361391 0.0027708453 0.004081625 -0.0011588141 0.00095052365 0.0066193026 -0.00075063325 0.0033269953 -0.0007072623 0.0052505736 0.0036376847 0.0025990882 -0.0053248256 -0.0047079395 0.0043173963 -0.005915206 -0.0002093175 -0.0006206389 0.0035003158 -0.008429458 0.008815803 -0.0014588333 -0.005313533 0.004021141 -0.0019246197 -0.0077767884 -0.0044772285 -0.00039057658 -0.0089496 0.0005812421 0.0024253505 -0.0032318602 0.0025912076 0.0024926942 0.009994996 0.0014081668 0.0020242191 0.0027753206 -0.0020711597 -0.008709172 0.008035412 -0.0019718932 -0.009709075 -0.006557878 -0.0039636143 0.0039551435 0.005050578 0.0061068125 -0.0068010804 0.00069011375 -0.0028107623 -0.005212875 0.0069690747 0.0039563635 -0.003104772 -0.008277038 -0.005121982 -0.00065894576 0.007802969 0.0060641044 -0.008457679 -0.009572304 0.0071540084 -0.0023185946 -0.003671202 0.0057175546 -0.0058437353 0.0050886995 -0.00022336395 -0.006863118 -0.00033262293 0.0063729268 0.009293714 0.002233689 0.0050448594 -0.004988946 -0.0007993787 -0.005350915 0.0012065135 -0.001811228 -0.0036178513 -0.0070321006 0.00964068 0.003000148 -0.0022833038 -0.004185629 0.007719639 -0.0064611887 0.0031252543 0.0008011866 0.008313603 0.006871897 -0.0029141086 0.0025637487 -0.0016631276 -0.009450305 -0.0026180383
much 0.0013325238 0.0065408563 0.009984603 0.009062455 -0.008015361 0.006491386 -0.0057147373 -0.0009715748 0.00048282265 0.0065819337 0.0044701435 0.004603727 0.009483124 0.0003826642 -0.0060387133 -0.0063301004 0.0064317896 -0.0052425815 -0.0028498126 0.004075284 -0.0022902358 -0.006025213 -0.002323655 0.001206919 0.0021833598 0.0060837734 -0.005214001 0.0030779613 0.007240676 0.0021951138 0.00539749 -0.0048453333 0.006152612 -0.0076012816 0.0034928655 -0.009321804 -0.0026043104 -0.009073199 -0.0015882683 -0.005364752 -0.0039439187 0.0011536527 0.0028003477 -0.0015263951 -0.008170515 -0.0059180222 0.00081929564 -0.0039462578 -0.009430448 -0.0007749748 0.0066332687 0.005978844 -0.009917259 0.003118583 -0.005987301 -0.009181891 0.00017021298 -0.00036962033 -0.0069719995 -0.0062800576 -0.0024260855 0.0070966566 -0.007545879 0.007698084 -0.0004754448 0.0010932934 0.009482661 0.00472816 -0.0035727667 0.0037356198 0.003519286 0.0063366974 6.933927e-05 -0.0044236863 0.0013182712 -0.0054142345 0.0014117574 0.004926181 0.005154848 0.009181637 -0.007512665 -0.005403644 0.0064693727 0.0013554788 -0.006611801 0.00088438985 0.0026770402 -0.0025288356 -0.0049601602 0.005004755 0.009621821 -0.0073646735 -0.00011532188 -0.0025644589 -0.006365142 -0.0013786554 -0.0052507855 0.009059995 -0.0057907687 0.003686075
there -0.00023265043 0.0042098393 0.002101132 0.010003845 0.00062616286 -0.005500012 -0.0011532749 0.0021211007 -0.0034154458 -0.0078732725 -0.0056252526 -0.006778367 0.006345798 0.0039351364 0.008223575 0.0065190378 -0.006133617 0.0026973477 0.008461058 0.0015531417 0.0030819583 0.0058385544 -0.00881367 0.009120697 0.006811099 0.008526037 -0.008241216 0.006178899 0.006615594 -0.0013330086 -0.0062809587 0.0053318376 -0.006853426 -0.005359061 0.0035121157 0.008119633 0.008708691 -0.004411836 -0.0092134895 0.009598072 0.006290558 -0.003975685 -0.008477159 -0.0047064717 -0.003928136 -0.0032752452 0.0007934937 -0.00030338715 -0.0031022283 -0.0059974683 0.009430011 -0.004740145 -0.0072559663 0.0076663503 0.0025145935 0.008628265 -0.0044641667 -0.006906167 0.0009721304 -0.0011556385 -0.009392098 -0.0016233316 0.0030550973 0.0065761716 0.006852776 0.0032416997 -0.0044673407 -0.0018109895 -0.003971351 0.005788814 -0.0063720294 0.0021292567 -0.0013349557 -0.0058194553 -0.00723294 0.0058378247 -0.008345308 -0.00069720484 0.0028430829 0.007731297 -0.0073130657 0.0033072063 0.009782368 -0.006973698 -0.003546337 0.005116047 0.0052592657 0.0016424132 0.007987807 0.00084788585 0.0019092315 -0.0016102676 -0.008164678 0.003249688 0.0019871022 -0.008735196 -0.00066415465 5.334254e-05 1.5851216e-05 0.008695506
treasure -0.0025082058 -0.005894311 0.007467243 -0.00725285 -0.008964499 -0.0018031602 -0.008351722 0.0004072041 0.0019258766 -0.0024831793 -0.0064534605 -0.0003251078 -0.0011076764 0.003497516 0.008138964 0.005841828 0.008444239 -0.008958041 0.009429375 -0.0023685263 0.0086935 0.0023773185 0.0035995054 -0.0095950635 -0.009486938 0.008980749 -0.002907281 0.0028140568 0.0064077955 -0.00029137655 0.009722537 -0.001043967 -0.009677042 -0.0070698676 -0.0010496527 -0.008674624 0.007432356 0.0036262379 -0.008743766 0.00848395 0.008923695 0.0058547542 0.006911356 -0.009575728 0.0004955207 -0.009221725 -0.003681243 0.00026381845 -0.0002704158 0.0014640794 0.0032892271 0.0021170415 0.0053255404 0.007506912 -0.005890954 0.007955245 0.0060068495 0.009787245 0.004607942 -0.003319455 -0.0037460001 -0.00063385884 -0.001657909 0.009872796 0.0011344923 0.004016466 0.0034075042 -0.008843651 0.006706161 0.008186263 -0.0016765129 0.0023438302 -0.006465071 -0.0061334237 0.008223207 -0.003053663 0.0067374907 0.0015615622 -0.0019780016 0.0030438793 -0.0040298346 -0.001787719 0.0013764946 0.0048928726 -0.0014111141 0.0006514687 -0.007920808 0.009498972 -0.00875303 0.007080102 0.003922065 -0.006988398 -0.0052927723 -0.007947773 -0.0051106983 0.0070690913 0.009638878 0.0021482531 0.0006482779 0.009516009
magnificence -0.0049658143 -0.0012898971 0.0032692505 -0.0064033074 -0.009698639 -0.009272821 0.009039159 0.005403403 -0.0048138914 -0.008338223 0.0012772192 0.0028622085 -0.0012445978 0.0012777657 -0.0043130014 0.004792002 0.001476732 0.008866557 -0.009984703 -0.005301678 -0.009089414 -0.00033141917 -0.00783821 0.005023878 -0.006404122 -0.005948761 0.005063438 -0.00815275 0.0014409263 -0.007225021 0.009873335 0.008632574 0.0017755938 0.0057630455 0.004593868 -0.0059725065 0.009761696 -0.009682801 0.00803554 0.0027472132 -0.0030548393 -0.0035699103 0.009066302 -0.0054243426 0.008211926 -0.0060085934 0.008368886 -0.0005606097 0.007953657 -0.0031539588 0.0059866123 0.008796326 0.0025481677 0.0012972612 0.005037224 0.008003517 0.008564251 0.008486684 0.00703913 0.008010453 0.008604738 -4.7036523e-05 -0.001002953 0.001678922 7.8736116e-07 0.0007097282 -0.008615643 -0.009567539 -0.002333394 0.008938252 -0.0036535296 -0.0069657494 0.0048892666 0.0010673915 0.001861398 0.003643406 0.0035361138 0.005720094 0.001242544 0.0008342071 0.009032878 0.0027814652 -0.0047272965 0.006548553 0.005209025 0.0028595843 -0.0031221192 0.0033503158 0.0063718976 0.007089577 0.00096804654 -0.008537111 0.00025919505 0.0003708049 0.0039603105 -0.00946873 0.009713322 -0.0069792755 0.005775651 -0.009443326
special 0.00964946 0.0073232283 0.0012555824 -0.0033972848 -0.00044971527 0.0004166902 -0.0064012217 0.0057589035 0.0023544373 0.0037757098 -0.0072610797 0.008521518 0.0005117529 -0.00019637 -0.00906691 0.004050648 0.0067666373 0.0073531214 -0.006428376 -0.007872844 -0.005517306 -0.00059787155 -0.008332915 -0.008242871 -0.00191956 0.0011357149 -0.009506039 -0.0037284044 0.0006329905 0.00681214 0.0017424857 -0.0006319927 -0.0074799266 -0.0067535727 -0.0006994114 0.007475625 0.0054469327 -0.0014821888 0.0011639406 -0.009608835 -0.0013848738 -0.004629377 0.0058077793 -0.0023319526 -0.0047489842 -0.009470965 -0.0012091331 -0.0072007235 -0.0016795343 -0.004065457 -0.0023766176 -0.0032542874 -0.008159528 -0.0012601953 0.0016900083 -0.0040460243 -0.0076468536 -0.0035898886 -0.009058064 -0.0007567118 0.005888538 -0.0029673749 0.00316434 0.0050014867 0.00846561 0.0056349435 0.00950162 -0.0096320715 -0.007971989 -0.006749001 -0.0074650464 -0.007956418 -0.007781848 -0.0029440536 0.0014031995 -0.0028784154 -0.008806864 0.004984718 0.00090663775 0.0045817913 0.007193034 0.0076448238 -0.00082230114 0.003666323 -0.0051261433 0.0019039427 0.004543102 0.009889697 -0.0031787755 0.0028424477 -0.0057268753 -0.0022149018 0.008126989 -0.003902178 -0.0011847795 -0.009283375 -0.009473966 0.008875077 -0.0056957346 0.0050446163
party -0.006956662 -0.0024596935 -0.008045521 0.0075032855 0.0061253705 0.0052287136 0.008404066 -0.00065097347 -0.009352366 0.009097397 -0.004960617 0.0078287665 0.0055273436 -0.0010778252 -0.0076456056 -0.001475488 0.0062534916 -0.0069787498 0.0014331552 -0.007985433 0.00873184 -0.0028394395 0.00946706 -0.0057244324 -0.009727936 -0.008618758 -0.004094235 0.0047168513 -0.0002607218 0.009247413 0.003123765 0.0037501906 0.0029973092 0.008120364 -0.0023987426 0.0074236253 -0.009533107 0.0029223603 -0.0006954966 0.00044836942 0.006837852 -0.0028389166 -0.0023647984 -9.052286e-05 -0.00047723588 -0.0035764796 0.0062235026 -0.0065643876 0.0078975 -9.701727e-05 0.002627302 0.0032087485 -0.00027286218 0.001678121 -0.0031429727 0.004747974 0.00025209584 -0.0032879761 -0.00872801 -0.0099801645 0.0003153125 -0.005767548 -0.0011098457 -0.004196969 -0.00863182 0.0010990533 0.0058970065 -0.0021880674 -0.0072068945 0.00316463 -0.00040784795 -0.005501137 -0.0010897212 -0.00065078627 -0.00316911 -0.009966838 0.0076520685 0.0037230516 -0.0025225175 0.0072905323 0.00043188903 0.0071842526 -0.0015753676 0.00750552 -4.8603146e-05 -0.006100006 -0.004688273 0.00965095 0.0005912196 0.0010384538 0.008487223 -0.006298059 -0.0017624447 -0.008194395 -0.0066460557 -0.008583318 0.003951276 0.0027261928 0.005636581 0.00255124
birthday 0.002113515 0.005735155 -0.0021164084 0.0031722975 0.008443761 0.00038807152 0.006294583 -0.006743568 0.0065758214 0.0046894765 0.0050803483 -0.009918785 -0.0004294443 0.0032061124 -0.0058259894 -0.0066937874 0.0063639055 -0.0068237507 -0.0051825 0.008121839 -0.007020297 0.0085453745 0.00065462233 0.004405707 -0.0030124402 -0.005427735 -0.008947534 -0.00061247346 -0.0051022377 -0.0030760348 0.008111455 -0.00764791 -0.0063092792 -0.005263678 -0.0066037406 -0.008840623 -0.0011100412 0.009445978 0.008036537 -0.0052740965 -0.008137507 -0.0022573948 -0.009266782 -0.0050677396 -0.005947807 0.0030251218 -0.0075690425 0.0012505853 0.0022869015 0.0053133154 -0.002020396 -0.009771661 0.0052216672 -0.005906494 0.004885756 0.0019747543 0.00881742 0.0015313375 -0.0018274629 0.0064887702 -0.0070699216 -0.008389063 0.0037891709 -0.0025769507 -0.0041838395 -0.0019248783 -0.009875093 0.00026053787 -0.0010566545 -0.0029714168 0.002500645 0.004693395 0.0063426066 -0.007913747 -0.0049889944 -0.00878747 -0.008949036 -0.003730061 -0.001273706 -0.008212633 -0.00537632 -0.0021517742 0.0063426876 0.0015686083 0.008314688 -0.008316208 -0.0045758747 -0.00080408336 0.008800179 0.0011063516 0.0015399777 0.001290785 0.0029226209 -0.009395946 0.0032544017 0.005464685 0.0052863276 0.004439888 -0.0080863675 -0.004059777
eleventy-first 0.008356524 -0.0005799743 -0.009454837 0.0047916523 -0.006047202 0.00664848 0.0054052663 -0.004987338 0.0025302721 0.0053962087 -0.003617401 -0.001541269 0.009163687 0.009075031 -0.009378594 0.0075537115 0.009879753 -0.0028583982 0.0024467183 -0.0028453742 0.008672213 -0.00025742018 0.0056670927 0.0092093 0.004105126 -0.0071113696 -0.0019396852 0.000990035 0.0020057994 0.0029746857 0.009465818 0.0044051334 0.009925234 -0.008697764 -0.005757346 0.0020169076 0.0036608104 -0.0009874112 -0.006936677 -0.0032274327 -0.008529457 0.009406242 0.003712151 -0.007857478 0.003218307 0.004170414 -0.005669245 -0.0059259613 0.0010511739 0.008965823 -0.009638584 -2.039625e-05 -0.0068596466 -0.0009761481 0.0030500493 -0.005034925 -0.002787981 0.00066386524 -0.0063820877 0.0073024123 0.004384374 -0.008581025 -0.002138529 0.003175042 -0.0083327545 -0.007027181 -0.008469764 -0.0054543577 0.008817226 0.007098206 0.002876545 -0.008522336 0.005763119 0.004624065 0.00014681862 -0.008855139 -0.0018623504 0.0001764382 -0.0077450452 0.00245205 0.0004637845 -0.00704951 -0.008317437 0.0060550757 -0.008363807 -0.0056094504 0.005610928 -0.00047120702 -0.003047617 -0.005180863 -0.0011560939 0.0052596224 -0.005936178 -0.004987635 -0.0049187313 -0.0047571096 -0.007964297 -0.009771873 0.0076018493 0.007970552
celebrating -0.004286241 -0.009328841 -0.0018721154 -0.0037075975 0.009098594 0.0029388885 -0.0059783785 -0.0033575618 -0.009906199 0.0019442708 -0.0039894017 -0.0027100197 0.005178977 0.0076002325 0.004383709 -0.00682051 0.0066993088 -0.009632369 -0.006987418 -0.008008912 -0.0022630007 0.00048047863 -0.0037730832 0.0018455724 0.009205912 0.006678657 -0.0010563014 0.009095267 0.0015585897 -0.0019744935 -0.0065963175 0.0064760144 -0.009069702 -0.0018939803 0.0076938923 -0.002584861 0.0016081826 -0.0073489384 0.0049766838 0.0073762415 -0.009307585 -0.0032797288 0.007892126 0.0029346852 1.4224697e-05 0.00034215068 -0.0098661315 0.009935965 -0.0020007475 -0.004889665 0.002750339 0.0010300052 -0.0059325104 0.005795675 -0.0025035131 -0.0061765895 0.007237357 0.0064636683 0.008822709 0.0011640538 0.0005094135 -0.007932075 0.0046493583 0.009362331 -0.0006802575 -0.0017628995 -0.003815226 -0.0004928916 -0.0076192147 0.0056918673 0.001489492 0.009293723 -0.006424657 -0.005090005 -0.0062357364 -0.007275868 0.0027579411 0.0048950235 0.0013415912 0.0035429955 -0.009389932 -0.0010673695 -0.007743252 0.002954738 -0.0026883085 0.008885052 -0.0034362953 0.0068403785 0.004117979 0.0013664982 -3.8664093e-05 0.008172708 0.002360145 0.008258495 0.0033346622 0.0054217395 0.005105451 -0.007629367 -0.0057873754 0.0012346549
be 0.00019318859 0.0021472685 0.0010532617 0.007590794 -0.00442051 0.00030555713 0.0070238486 0.002285067 0.004224189 0.00428986 -0.0012781129 -0.008332909 0.0030461857 -0.008870978 -0.002646653 -0.0094045885 -0.0004582239 -0.007874139 0.0074056573 -0.0049091377 0.009928992 -0.009024285 -0.0042948825 0.0019223333 -0.0030000962 0.001442543 -0.0036941543 -0.000881586 -0.0057445727 -0.009810447 0.00634427 0.0003855614 0.006515121 -0.00749012 0.0036570749 -0.009882706 0.007608639 0.005924266 -0.006130656 0.008207779 -0.0055838763 -0.008546504 0.0014979341 0.0031843225 -0.00808405 -0.008938349 0.009159365 0.0016388199 0.00087953394 0.0024844971 -0.0034953644 0.0017195359 0.0019592058 0.009778629 -0.00560567 0.002265691 0.006304328 -0.00667768 -0.008945397 0.00866301 0.0068377825 -0.004034241 0.005750804 0.0007892033 -0.005015637 -0.0013279909 -0.0049031833 0.0061535775 0.0019336356 -0.008310164 -0.00014996695 -0.002629321 0.0066196723 -0.0011521999 0.0076840078 0.0019421789 -0.0038178556 0.008150985 0.0029480776 -0.0039788163 -0.0056145764 -0.003077095 -0.005160618 0.0034550163 -0.009289568 -0.0058380254 0.003358567 0.00020654286 0.006000757 -0.0035933307 1.8800696e-05 0.0024692016 0.0054616504 0.0016017609 0.009838685 0.003714492 -0.007172219 -0.001412718 -0.008354637 -0.0053423084
shortly -0.0021938945 -0.009709063 0.009279229 0.002029499 -0.0011670539 -0.005541399 -0.008483498 -0.009861168 0.008915434 -0.0025260895 0.004570736 -0.004528721 0.00994604 0.0036586116 0.0010394595 -0.0040621497 0.0012102649 -0.0026640007 0.007342775 0.004456838 0.00100017 0.0034926066 0.0037432914 -0.006794134 0.008923261 0.0017433628 -0.0058085998 0.0086625675 -0.0013052642 0.008210689 -0.0014939139 0.006996092 0.002728834 -0.0043839137 -0.00374644 0.009207292 0.001591007 -0.0060052862 0.00033770443 -0.0019698648 0.0015795507 -0.0077087833 0.0073791454 0.0013108727 0.007886912 0.0044452166 -0.004403931 0.0037492893 -0.00063314394 -0.009850282 0.008254508 0.009634234 0.009663704 -0.00382758 -0.008446335 0.004823014 -0.0076510836 0.008531164 0.0027489278 0.005620258 0.006114635 0.0004469302 -0.0020888767 0.00077408 0.009841755 -0.0070938 -0.0015579624 -0.0023452318 0.0048302817 0.0064605973 -0.0041463687 0.0036420703 -0.0044687567 0.0032591415 0.008185956 0.0036149619 -0.00456555 -0.0030125245 0.007871887 0.009593375 0.0058000144 -0.0032525614 -0.0018481484 -0.006246009 -0.004301005 0.0033501917 -0.0064580785 -0.0066005355 0.008116978 0.009519075 0.008171978 0.0014951959 -0.008796406 -0.0076213367 0.0015919389 -0.009534104 -0.0073932107 0.002000861 -0.0029029346 -0.009173377
would 0.0064189998 -0.008953356 -0.0073506776 -0.0017453538 0.0016966381 -0.0010451655 -0.0051949453 0.0065918504 0.008772929 -0.007418376 0.00979542 0.0073587224 -0.00746043 -0.0018953551 0.0042544333 0.007054919 -0.0036686137 -0.00698029 0.004723156 -0.009051928 -0.0058369013 -0.0012728795 0.0054929974 -0.0056908494 0.004780759 -0.00042804697 0.002659684 0.0064063286 0.0014097799 0.007713843 -0.00031873595 -0.008257765 0.009181984 -0.0048704785 0.004724325 -0.0038953137 -0.007327161 -0.0065083317 0.0046681436 -0.00066388055 0.0014654829 -0.0089307465 -0.0051511275 -0.0060480596 0.00842134 -0.008701818 0.0050113327 -0.0008667735 0.00020170104 0.008798005 -0.0035843153 -0.0069461935 0.0007725232 0.007730716 0.009126409 -0.0036838192 0.0027289046 0.00494114 -0.0052994196 0.006860511 -0.0064478777 0.0020952432 0.004588565 0.0043894383 -0.0046656965 0.0026529941 0.0072998703 0.00862337 -0.009519616 0.0055805626 0.004961931 -0.0015870258 0.009193791 -0.004183906 -0.0017437802 -0.006868065 -0.0037688198 0.0002373366 -0.0032635224 -0.0054228157 0.006560838 -0.00529649 -0.006338599 0.007640693 0.0096442 0.003984769 3.7082846e-05 0.00079962483 -0.00096239184 0.0068686767 -0.0062368074 0.0005059482 0.004291867 -0.0021139581 0.0009024456 0.003704785 0.009713573 0.002172852 0.009503124 -0.005839225
announced 0.004804174 -0.003635734 -0.004270802 0.0012274674 -0.0041230707 -0.005645193 0.0031588164 0.008371016 -0.0065657827 -0.009125258 -0.0033452467 0.007510538 -0.009687209 0.009606103 -0.00040793323 0.0023039272 -0.0018506707 -0.005774628 0.0030906533 0.0061685066 -0.0070341416 -0.0011591704 0.0015740728 0.004244217 0.007133108 -0.003541355 0.007270183 -0.005562566 -0.0022088212 0.009094023 0.0053914282 -0.008481299 -0.001649261 -0.008858896 -0.0016438679 0.005675947 -0.007410456 0.005508589 0.006071032 -0.003776334 -0.009652254 -0.002521059 -0.0025588742 0.0037702234 0.008938223 0.0019954527 -0.0021263591 0.0029578852 -0.006790182 -0.0012902394 -0.0014791557 0.009593079 -0.0058086277 -0.007060634 0.0023653777 0.0026349535 -0.007150098 -0.00587655 -0.0011905109 -0.0032897184 -0.008969418 -0.0040581604 -0.0029597548 0.0065099853 0.0009685774 0.0016192888 0.0002647093 -0.0033601443 0.0030857013 0.00072475127 0.005980874 -0.0007633343 -0.008892483 0.0008805798 0.009935197 -0.005260146 -0.0052019055 -0.002525101 0.00858871 -0.0008392389 0.009405624 -0.00832397 0.008989012 -0.009703779 0.009189462 0.0018626201 0.0026732902 -0.0058462084 0.008447488 0.0060477154 -0.0054605766 -0.009505703 0.0069736647 -0.005535268 -0.0093065975 0.0025958442 -0.004972731 -0.0073709837 0.009739362 -0.0016012498
Baggins -0.0015111476 -0.0040334123 -0.0044035837 -0.004628358 -0.005595037 -0.0053083724 -0.0080108205 0.009536757 0.0063917357 -0.0036140294 0.0024726826 -0.007651688 0.0075210473 0.008304292 0.0007958226 -0.006841268 -0.002956646 0.0047312323 -0.0029437204 0.0031675564 0.00941217 0.004355204 -0.0051373513 0.0054652328 -0.002880622 -0.006394744 0.0070003844 -0.009248179 -0.0011402207 -0.0013807145 -0.008415092 -0.0011031197 0.0056020804 -0.005279083 -0.007030971 0.0062063443 -0.0034263744 -0.007818112 0.0002872393 -5.2236657e-05 0.007538971 0.00057438214 0.007880384 -0.009810241 0.0040379134 0.0062133987 0.001024764 -0.0028383916 0.0010287802 -0.0008331799 -0.008102713 -0.006793937 0.0012015646 -0.0020349848 0.009552389 -0.00095551106 0.006115929 0.0020469201 0.008096524 -0.009286396 0.0023908834 -0.0014587125 0.0021602628 -0.00022174424 -0.006644912 0.00905909 -0.0028431935 0.0019268465 -0.006456759 0.0037185156 0.009995368 -0.001184899 0.0065885647 -0.00012744061 0.007938837 0.009648228 -0.0003846632 -0.001704842 -0.00952301 0.009869696 -0.0025420417 0.002194514 -0.0017126413 0.008334623 0.008338697 0.0015262183 0.0028941354 0.006436108 0.0022487817 0.0064503835 0.00015756473 -0.0022878428 0.0053122044 -0.003419579 -0.0026010033 0.008791276 -0.009147736 -0.0034131154 -0.00291706 0.0056603253
Mr. 0.007943497 -0.0064516068 0.005794531 -0.00021767258 -0.009031862 -0.0024426687 -0.001584332 -0.004480821 -0.0007937813 -0.0052384343 0.0059405947 0.00930338 -0.001587665 0.0033767426 -0.00074801565 -0.00069963216 -0.0070105614 0.0014569045 0.0039026928 0.0069100726 0.0065388405 0.0035366034 0.004661671 -0.00743211 -0.0013864994 -0.0057826424 0.0068010474 0.007826643 -0.0042740214 0.0011536574 0.005109404 0.0018094849 0.0007859159 -0.00674016 0.009832679 -0.007259703 -0.0060337544 -0.005666082 -0.0063479636 -0.0034910608 -0.009400295 0.0011781335 -0.0037502348 -0.0025512874 0.005784941 0.0035504817 0.0018209183 -0.0013740504 0.009877478 0.00028656007 0.0050154557 0.00903775 -0.009766579 -0.009155372 0.009922828 0.0027367878 -0.0018855811 0.004724064 -0.0043154038 -0.0063976385 -0.008257407 0.00721012 -0.0024493719 -0.007543167 -0.005910386 0.0061755227 -0.0024796904 -0.0061457898 -0.0016179812 -0.001473552 -0.0032548439 -0.0020892383 0.0041057337 0.0014466 -0.0034903418 0.002692374 0.0052289427 -0.009190811 -0.0075583374 0.006296368 -0.008938105 0.0005282235 -0.008993818 0.008369829 -0.0042935372 -0.006620498 -0.0013837707 -0.0011136746 0.007533026 0.009109524 -0.00035077214 0.002693578 0.004737197 0.00014275432 -0.005780002 -0.00059441925 0.0021829747 0.0083017135 -0.0035923254 -0.0098455455
peculiar 0.0053825267 0.0098117 -0.0070623313 -0.00057974213 -0.0050664516 0.006432115 0.009665817 -0.0003124547 0.00512655 0.0065328013 0.00439589 -0.008040005 0.003101544 -0.0014797613 -0.0021600183 0.0054005515 -0.0013194281 0.009928053 -0.0006390696 0.00025485092 -0.002295838 -0.0085120415 -0.00980056 0.004956815 -0.0066217864 0.0029707532 0.0027728833 -0.007004308 -0.003143113 -0.005797323 -0.008561935 2.9429351e-05 0.009789621 -0.006693701 -0.0043632826 0.008345448 0.009302737 0.009816434 -0.009901357 0.0050529414 -0.0066465912 0.0068764705 0.0061319144 -0.0033699514 0.0068951556 -0.007868324 0.004544895 0.004577288 0.0059235455 0.0058747404 -0.0026560968 0.0038868727 -0.006116634 -0.0064679016 0.002746338 -0.009467236 -0.00030292498 0.0010818943 0.008004654 -0.0070035886 -0.0023292846 -0.0041220183 -0.0052220062 -0.00046240384 0.00460977 -0.004974106 -0.0016509469 0.008667519 -0.0013189557 -0.0035611172 0.007436157 0.0012261326 -0.00033310632 0.00946443 0.008129891 0.0034174523 0.0033605539 -0.002291 0.008103607 0.005062083 -0.005433955 -0.0061330143 -0.00060378254 -0.007926672 0.0033603895 -0.009234723 -0.0015425793 0.0033585236 0.0030565176 0.0031665007 -0.009055135 0.003418335 0.0053500948 0.0034601497 0.007799367 0.0016560025 0.006278155 0.008833956 -0.0009331546 -0.0008092887
been 0.0022377537 -0.0075310185 0.0056220707 -0.004996689 -0.0032543764 -0.001843503 0.00824153 0.0022954405 -0.000913885 -0.002870117 -0.0021302889 -0.0013234018 -0.005085386 -0.004123435 0.00020300633 0.004540104 0.0017925734 0.0069136415 0.0006362644 -0.0032497623 -0.007364691 0.006008111 0.00697755 -0.0060563413 0.0046769623 0.009511862 -0.006405049 -0.0028698589 -0.0091068335 0.0032492664 -0.0034393333 0.0020340336 0.0094480645 -0.008378631 -0.009326126 0.0017421098 -0.008025767 -0.009056899 -0.0093767075 -0.00028772728 -0.00110762 0.00074805267 -0.0013531332 0.00905509 0.008793657 -0.0063776104 0.008691975 -0.0090481145 -0.0013344558 0.002555955 -8.7244814e-05 -0.0038325365 0.00046705088 0.0009710613 -0.009413321 -0.0048952973 -0.0077137733 0.0038028439 -0.0008905654 -0.0074732495 0.005619833 0.00023052287 0.0027181779 0.005427681 -0.0042404686 0.0078699915 -0.007851512 -0.003420989 -0.0073963436 0.0009774205 -0.007385371 0.009084673 0.005548147 -0.0072323824 0.0061973934 0.006601489 -0.0074022766 0.0046487334 -0.0077299206 0.009320098 0.00465851 -0.00021854264 -0.008963146 -0.0008851285 -0.00028511908 0.0008938969 0.008681587 -0.0027806223 -0.008676207 -0.008824011 -0.001036414 0.0013732467 0.000108569766 -0.0022147172 0.008579706 0.00010544865 0.0064440686 0.0039904844 -0.007193103 -0.002129328
stuffed -0.007765886 -0.00676795 -0.0031630597 0.0066155246 -0.000826636 0.008867907 -0.0022765587 -0.005271885 0.0038986593 0.0022014172 -0.000304601 -0.0024617808 -0.00600919 0.0040413383 -0.0076041217 -0.008913361 -0.009161355 0.008378147 0.004004436 0.007074899 0.009906358 -0.0072122184 0.004054076 0.0028086673 0.0061562825 -0.0033791165 0.009315631 -0.005788907 0.0070180404 0.0069720396 -0.00037849357 0.0050576003 0.00664332 0.0015177347 0.0073646526 0.0024215446 -0.0015273163 0.0073946593 0.004678284 -0.0031862203 0.0016453464 -0.00014513309 0.004961703 -0.005403017 -0.0041683074 -0.0009336375 0.0038059915 -0.006590403 0.007851777 -0.003089484 0.005749696 0.002846846 0.006828686 -0.0044901925 -0.0032040405 0.0030570463 -0.002784881 0.005936813 -0.005967093 0.0025988051 -0.0007206934 -0.00062391255 0.0025454795 -0.0021698347 -0.0042547965 -0.008525758 0.0024834336 0.005345127 -0.0058896085 0.009118517 0.004033531 -0.005158709 -0.0012986468 0.0039215055 -0.006991537 0.002037478 0.0055146134 0.006246434 0.0054334453 0.0036500976 -0.002763781 -0.0060756896 0.008136166 -0.007298197 -0.0016226918 -0.0032835281 0.0065041943 -0.0062720054 0.0033950068 0.0020473972 -0.004047594 -0.008249357 -0.008035191 0.0034935873 -0.009548317 0.0057030628 -0.0029114054 -0.009180143 -0.0051253387 0.007732339
old -0.001721412 0.0064061354 -0.009276536 -0.009146532 -0.005202178 0.00095223903 -0.007175615 -0.009446025 -0.008885669 -0.00046301365 0.007413511 -0.008378588 -0.0053330194 0.0015175033 0.0033193338 -0.008458166 0.007867761 -0.0082163755 0.004736303 0.00941531 0.005660174 0.0061728633 0.008236631 0.0034529127 -0.007144458 0.0057470677 -0.008312941 -0.005723864 0.0059056757 -0.007929402 -0.005870379 -0.003558364 0.00339306 0.0052196966 0.0020552755 0.005108552 -0.0026270736 0.004351983 -0.007048397 -0.0016602444 -0.007744801 0.00017380595 0.0046981587 0.004800031 -0.0046552704 0.0017504728 0.007811227 -0.0055738185 -0.0037877548 -0.0005975401 -0.0047197603 0.00869686 0.0075421287 0.009221414 0.009362886 -0.008450839 -0.00047973992 -0.007606381 -0.004809767 -0.008839706 0.003415774 0.00010644913 -0.00691568 0.007963084 0.00095298054 0.0002985716 -0.0035640658 -0.0033466064 -0.0026424371 0.0076221754 0.0023945929 -0.0051709306 0.0047299396 0.0009904968 -0.0027331484 0.0077094496 -0.003947239 0.00743152 -0.0042154347 -0.0073564625 -0.004496534 -0.003898498 -0.0007044029 -0.0018445099 0.0051112175 0.005450568 -0.0017388356 0.0037336934 -0.0020284653 0.00073460577 -0.0013664376 -0.0024628246 -0.004716823 -0.004261787 0.00012702227 0.0016494489 -0.00944871 0.0060763573 -0.0016806173 -0.002974379
local -0.004785032 -0.0043205414 -0.0048394008 -0.009794205 -0.00076809706 -0.007830071 -0.0047602654 -0.007280851 0.009878221 -0.0013927754 -0.0078008724 0.005474193 -0.008076739 -0.0018951489 0.0027602413 -0.0070984345 -0.008730026 -0.006650031 0.0074401964 0.008998326 0.0040061995 0.0024272173 0.0041775154 -0.0040802057 0.0097556915 0.006891445 0.004091052 0.008961332 -0.008440645 0.0009606854 0.008910551 -0.0009506961 -0.006727808 -0.0023380544 -0.0028110514 -0.0024496266 -0.001828871 0.007286357 -0.0003349806 0.004227741 -0.0037594002 0.00823439 -0.0065119825 -0.009318266 -0.004090232 -0.007366477 -0.0049249106 0.00048117092 0.0024044793 0.0017547788 0.005031029 -0.0014427464 0.0022759957 0.0002904981 0.0078373 0.00801084 -0.0019787098 0.0012409494 -0.006070734 -0.0047408896 -0.006966846 -3.3158794e-05 -0.004893529 -0.004027588 0.0015041296 0.0026699912 -0.0091439895 0.0018075715 0.005067325 0.004185635 -0.0029044752 0.009533513 0.009488284 -3.8687016e-05 0.0009050708 -0.0092760455 -0.0047732512 -0.0001173011 0.0040590097 0.00013148459 -0.008760232 0.0058146142 -0.007485749 0.008573635 0.0054943557 -0.0068194135 0.0028823183 0.007737761 -0.0060895006 -0.006521986 0.009256796 0.0018058103 0.009734234 -0.009922562 -0.0014442672 0.006903254 -0.0014406923 -0.0017800445 -0.007044017 -0.0057002045
legend -0.0065009287 0.008902483 -0.0016125612 -0.0082757585 0.008027135 -0.002996103 -0.0012921024 -0.0005947989 0.0027695054 -0.0047375737 -0.00031696848 -0.002876432 0.008772952 0.006880465 0.0011237859 -0.006086798 0.0031294543 0.0011055387 -0.0061394135 -0.0058220387 -0.0030613707 0.0024278492 -0.008052837 -0.0050202888 0.008077465 -0.0036797847 0.007923482 0.0005560205 -0.005574459 -0.0049279165 -0.00019057577 0.0045943353 -0.006075945 -0.0055650566 -0.0068161646 0.0067805215 -0.0024134433 0.0040063537 -0.0016634454 -0.007447386 -0.0012657653 0.00039110178 0.0035820685 -0.00863824 -0.006755242 -0.0065503437 0.00293639 -0.0037659798 0.0010375554 0.004156231 0.0045461245 0.002319723 -0.0028548148 0.0005861781 -0.0053999247 -0.006357227 0.008701572 -0.0040641506 -0.009360432 0.0037513685 0.008472187 -0.00021932593 0.002275653 -0.0035167185 -0.00419438 -0.00854394 -0.007879667 -0.009014957 -0.006032637 0.008516278 0.009414916 -0.0016324975 5.3578788e-05 0.00783734 0.0012946698 -0.005172866 0.0026665772 0.001788246 -0.003711738 -0.0049237628 0.009604123 0.007668739 -0.008654987 -0.005500236 0.0014015177 0.0008720401 -0.008309608 0.00936512 -0.005378922 0.004615394 0.009314981 0.0010742997 0.004215662 -0.002728368 -0.009635024 0.0005923933 -0.0010665115 -0.009938457 0.0070297406 -0.0074272132
it 0.00512819 -0.0044221203 -0.0092221415 -0.009058473 0.0062334565 -0.005274353 0.005295116 -0.0015079656 0.009651835 0.007122857 0.009856706 0.008355509 -0.007894044 -0.009572739 -0.0055567627 -0.0008206375 0.005004063 0.003660682 -0.002046885 0.005014651 -0.0033947143 -0.0067990124 0.0047474755 -0.009864637 0.00089151115 -0.0050099785 0.00757405 -0.0037203978 0.0027936073 -0.0062270225 0.00962894 -0.0056009917 0.0035701846 0.0031856585 0.008923986 -0.005534196 -0.004356541 -0.006219099 0.0061365115 -0.004596113 0.0048023006 -0.0008914165 0.00725928 -0.006031349 -7.094377e-05 -8.733677e-05 -0.00857817 0.008746074 -0.002090164 0.0064423634 0.00011170759 0.00499427 0.002222785 0.008813521 -0.008338483 0.008429228 0.008656872 0.0010463205 0.0043909736 0.0038544158 0.0040568775 -0.0029670605 0.0028542604 0.00077594904 0.004842162 0.008453386 -0.007766854 0.0001868075 -0.008778714 -0.0015642585 -0.009041589 0.0032017005 -0.0015515576 -0.0007153021 0.006453262 -0.00812687 0.0011602445 -0.0024306339 -0.0037138346 -0.0073031755 -0.007993378 0.008286549 -0.0074695908 0.0048191263 -0.0037988857 -0.001243412 0.0028421422 -0.008573072 -0.005640718 -0.0077125244 -0.00936184 -0.0047503696 -0.0031475846 0.00046692046 -0.0006608459 -0.007875446 -0.0037801454 -0.0027677845 -0.006354445 -0.0063991584
popularly -0.0026074366 -0.007918225 -0.008265061 -0.007585033 0.0035543267 -0.007593151 -0.0037045162 0.006640084 0.007395785 -0.0064007877 0.006794145 -0.007772238 0.0001311083 0.0066161253 -0.002834251 0.009215579 -0.00032246136 0.0046799583 0.0069473516 -0.008546596 -0.0060662464 -0.0072921272 -0.0011626021 -0.0070930766 0.00010773536 -0.0080465395 0.00050519034 -0.00038653726 0.0064641414 -0.008880661 -0.0031713839 0.005898554 0.009238649 -0.0017937482 0.00077457004 -0.006089563 0.0008175407 -0.008138139 -0.007644663 0.0013815266 -8.1907085e-05 0.0055635925 -0.009734836 0.001658198 0.0015827381 -0.0052477787 6.543557e-05 0.0060545406 -0.006597114 0.0002925046 0.0038979116 0.0016996649 0.002860744 0.008142997 0.0066898647 0.0035003633 0.007973954 -0.0076658595 0.0075299633 0.003891473 -0.0058978912 -0.0041961125 0.006397507 0.00580019 -0.009863813 0.0012546121 -0.00040234547 0.0008222482 0.007069455 -0.0071695917 0.009641143 -0.009453049 0.0062242006 0.009495275 -0.0038164502 -0.009397078 0.0061890194 -0.008965847 -0.00829447 -0.0008344116 -0.0066504236 0.008751785 0.007836984 0.0008352441 0.007998838 0.00983713 0.005196781 0.0043235854 0.005376361 0.006416173 0.004735431 0.0063834526 -0.0074484297 0.008856127 0.008290986 0.009378163 -0.009014662 -0.0034481662 -0.00034111907 0.004158458
believed -0.00820162 0.00015988092 0.005996048 0.009584593 -0.0028321946 0.001802059 0.006351553 -0.0019301075 0.001902908 -0.009336682 0.00066492223 0.0045575793 0.004503344 -0.009732749 -0.0051274626 0.0029554982 0.0015943416 -0.0047155223 0.005800942 0.003460747 -0.007803339 0.009861807 -0.007661761 -0.0030609472 0.009739793 0.0011464432 -0.0055594374 0.0011374336 -0.0041293176 -0.006718944 -0.007731446 0.0047490816 -0.009026214 0.0040051374 -0.0055391975 0.0054617985 -0.0043715225 -0.005580322 0.0063185617 -0.008671238 0.001334249 -0.002134853 -0.0066849547 -0.007627782 0.0068027093 -0.0044476404 0.0045402613 -0.009675859 0.0019247759 -0.0019592983 -0.0058834194 -0.0028295647 -0.008662569 -0.0035277407 -0.002584071 -0.0022980971 -0.0051268083 -0.009213977 0.00530996 -0.0012957015 0.006192669 0.0030429538 0.008572819 -0.0034771217 -0.008897521 0.0013907232 -0.009016017 0.0061039464 0.008390783 0.00053394446 0.007704886 0.008573916 0.0042422423 0.0054196147 0.009157393 0.0011253033 -0.008217956 -0.0083506 -0.0017602528 -0.00065377884 0.008799853 -0.009316353 -0.0026696033 0.009117624 -0.0014570593 -0.0091261845 0.0020413469 -0.0058197337 -0.0054649045 -0.006326159 0.00018640209 0.007222436 0.004123755 0.008144927 0.008882761 0.0045244554 -0.0060431324 0.0070610116 -0.009504268 -0.004838124
whatever 0.008017998 0.007895552 -0.0054803295 -0.007967147 0.008094655 -0.003869089 -0.0039969147 0.0073250043 0.0053270645 0.0037698485 -0.0013208129 0.008609763 0.00844053 0.006993998 0.009098787 -0.005820159 0.0009948821 -0.0016540856 0.0063119493 0.009683969 0.005201893 0.004103447 0.0066246623 0.0058444305 9.0372814e-05 -0.008320193 -0.0022159102 0.009096674 -0.005151329 0.0010716545 0.004911711 -0.0069420985 0.008199631 0.0013677548 0.0024104354 0.008376141 0.0014618646 0.0008943721 -0.009477921 0.009829533 -0.009875543 0.008545171 0.005036743 -1.918013e-05 -0.007803696 0.009345891 -0.001455451 0.005323987 -0.0029986652 -0.00490917 0.00021186384 -0.0081134895 -0.0066325585 -0.009552947 0.0053411177 0.0004113396 -0.0009311934 0.0050690426 -0.0020347405 -0.0073587303 0.0028824145 -0.0060218736 0.000522831 0.009525711 -0.00094857404 0.006242061 0.0044215047 -0.0034390434 -0.0053334413 0.008902837 0.002091675 -0.0003681682 0.0009653929 -0.0049360706 0.0035925196 -0.0031479925 0.0042666825 -0.0045921938 -0.00075475016 0.003856453 -0.007210026 -0.002520873 -0.0088395085 0.0015715314 0.0019710583 0.0023214899 0.0011387962 0.00012814085 0.0022403214 -0.0009089199 0.006036854 -0.0029558607 -0.0050653894 -0.0053605675 -0.00959254 -0.008119113 0.0021492173 0.0039608567 -0.0057260063 -0.0097445585
folk -0.0061587347 0.0046714265 -0.009102722 0.00509255 0.006358579 0.006094863 -0.007598753 0.0028853992 -0.00550443 0.009021341 -0.0043418976 -0.002376 0.005214695 -0.0008105486 0.00510571 -0.0042368877 0.004984921 -0.009791604 0.0060567167 -0.0012776796 -0.005603188 -1.5686544e-05 -0.0011907736 -0.0007356562 -0.0017673032 -0.009269749 -0.00782224 -0.006794295 -0.008651298 -0.004517726 0.009195711 -0.001820408 -0.007598097 -0.00593221 0.0035993308 -0.0026935085 -0.0015401342 -0.0042548217 0.005948572 -0.007832294 -0.0075022695 0.007528025 -0.006967336 0.0021595282 0.00039111747 0.00966351 0.0042073964 0.0020677792 0.002777167 0.0022981332 0.0022241287 -0.0027512617 0.0040955925 0.006076175 0.008930788 -0.0007523636 -0.0012079906 0.0064587034 -0.008493729 -0.0006432428 -0.006670375 0.004759377 -0.008941626 0.0032644665 0.009012514 -0.00203328 -0.008856538 -0.00815151 0.0032064905 -0.005330608 0.0064331577 -0.0011570503 0.007882492 -0.000514955 -0.0062012402 -0.0057224985 0.0007855583 -0.004778615 0.0065757516 -0.0035354153 -0.0056532007 0.0009521238 -0.0049001533 -0.008202247 -0.005268098 -0.0018858581 0.00045461566 0.00365742 0.0068885684 0.0067510963 0.005904663 0.00032851292 -0.0058162436 0.008986399 -0.000615491 0.00470434 -0.0014101072 0.005782116 0.005328548 -0.007315419
now -0.002733945 0.00010678383 0.002012908 -0.00928718 0.0048514702 0.003350016 -0.00015119974 -0.0034468556 -0.0076347985 0.00758692 -0.00863262 -0.007409572 0.0044553587 -0.008505312 -0.0032625897 -0.0021071292 -0.0019022733 -0.0068421364 0.004288643 0.0009626664 0.0036744885 -0.0013149752 0.006973454 -0.009550537 0.0058375257 -0.0051201144 0.0016860107 -0.006929546 -0.0025141782 -0.006404918 -0.0033303204 0.009724668 0.0027000702 0.0015685785 -0.00609264 0.0055977115 -0.008132957 -0.002291207 -0.006495583 -0.0063966676 0.0022892465 -0.0032820057 0.002429761 0.003934864 -0.006242766 -0.0017412453 -0.0027854024 -0.009810996 -0.0098325545 0.001110579 0.0044001285 0.00020633043 -0.004870577 0.0035804126 0.0016893107 -0.0094565265 0.007179581 0.007766765 -0.0077546146 -0.0007573576 0.006036326 -0.0028016034 -0.00032842887 -0.0042042187 0.0061115157 0.007034979 0.002077832 -0.0046615903 -0.0018704757 -0.0039766347 -0.009779297 0.007837252 -0.00058716885 -0.0006072452 0.0071111913 -0.009050927 0.0063486462 -0.0075749317 -0.0053484743 0.005058604 -0.0035208298 -0.003479437 -0.006360293 -0.0038981675 -0.0026759326 -0.0041282102 0.0094777 0.009465072 -0.00037336824 -0.00027965463 -0.0056026424 0.007911847 -0.004935223 0.005873094 0.009143641 0.0057529 -0.0009325801 0.0055381986 0.0069578215 -0.003909232
might 0.00067100034 0.006483885 0.0058524585 -0.00017155647 0.0023794468 -0.0065265177 -0.009346117 -0.0049236557 -0.0054090978 0.0005849792 -0.0039825193 -0.0003718753 0.0076367534 0.009740879 0.007879552 0.0023810416 -0.0027096837 0.00242067 -0.002692567 -0.008965764 0.0069063287 -0.0086396225 0.003813623 -0.003966269 -0.0055425037 -0.0010484557 -0.006566287 0.008591574 -0.006889093 -0.008952579 0.0057804133 0.0044636494 0.0047376254 0.002409377 -0.003727165 -0.005106652 0.0017703639 0.0083451085 -0.0056601195 -0.0023903819 0.001849155 0.0067218286 -0.0063977605 -0.0045257187 -0.0026253914 0.0013420726 0.005354153 0.005546029 -0.008701628 0.0072677718 -0.0024948623 -0.0028525332 -0.008860505 -0.005790738 0.0094514415 0.0030830733 -0.0080444915 0.0027998833 -0.007086485 -0.009054581 0.0038719864 0.0020199737 0.00126166 0.008856758 0.0062560383 -0.0050512524 0.0027159846 0.0025596176 0.0023765469 0.008350514 -0.0069212597 -0.0022893678 0.0010215198 0.0063733463 -0.00063906505 0.007915067 -0.004639086 -0.009038212 -0.0070481524 -0.004143663 0.009577661 -0.0051235366 -0.0048730485 0.008177948 -0.007466011 0.0019902845 0.0057252212 -0.00752249 -0.0002588059 -0.0023604082 0.0055884263 -0.0045662764 -0.0066066603 0.0098831775 -0.004610348 0.0075963545 -0.008452607 0.00701333 -0.0033792928 -0.007831943
say -0.001147764 -0.0023924585 -0.0018631663 -0.0011619256 -0.00650659 -0.003604818 -0.003132233 0.007853528 0.005770837 -0.0009443548 -0.0048963376 0.005242749 -0.008843696 0.0016740784 0.0040446143 -0.0019814868 -0.004527668 -0.0082552405 -0.00831647 0.0070354464 0.0036723642 -0.00033868683 0.009796446 -0.008579416 0.0005775847 -0.00042592586 -0.008119524 -0.009080587 0.007131024 -0.0035791148 -0.007867149 0.007943918 -0.0062446985 -0.0032122002 0.0017624327 -0.0032844893 -0.007959208 -0.0039213067 -0.009068707 0.0013680701 -0.0046316204 -3.839051e-05 0.0027106032 -0.0023310739 0.008885399 0.007046324 -0.000628847 -0.0006557102 0.00088455953 0.006746752 0.008983609 -0.0020055992 -0.0015839654 -0.0030559606 0.00049530296 -0.006479726 -0.0018870264 -0.008677335 0.0006092722 0.0014592725 0.0037455403 -0.0029281825 0.0059696995 -0.0070284256 0.00981577 0.0006292222 0.0022466397 0.004444332 0.0003206036 0.0026422513 0.0016074731 -0.00954101 -0.0030841634 -0.002609669 -0.009212438 0.003394417 0.004849688 -0.0021141102 0.0074490905 -0.0012485819 -0.0003267254 0.005787873 -0.008585266 -0.006891857 0.0073169437 -0.006652047 0.008515055 0.005387824 -0.008016369 0.008439296 0.006431987 -0.0067203925 -0.008454784 -0.008857045 0.003894966 0.006330512 -0.0021052319 0.0013140005 -0.008348408 -0.005184559
Hill 0.004715233 -0.009079855 -0.009250778 0.0010183853 -0.008578411 -0.0069700503 0.004781107 0.008072205 -0.007403712 0.008074908 0.009340325 0.0046904963 -0.004402828 0.009682535 -0.007707132 -0.0038974404 0.0019381581 -0.007655189 -0.009881392 0.0028192757 0.008201256 -0.0050820913 -0.00425123 0.0038900895 0.0006895578 -0.00852685 0.0065308823 -0.0031390067 0.0035593791 0.0031809611 0.008898514 0.008741098 0.0073084985 -0.008335068 0.0011966451 -0.00092323817 0.0008740992 0.008917473 0.004740383 -0.008945062 0.009823616 -0.00090521516 0.0003975474 0.0049733263 -0.006174819 -0.00039545636 0.0013405333 0.0070351353 0.004296934 -0.0019426607 -0.008452645 -0.003912761 0.008777316 -0.009530996 0.009839536 -0.00015130943 -0.0011508638 0.009588963 0.009553496 0.00828263 0.009014231 -0.01000638 0.0075311647 -0.009329307 -0.0077116136 -0.008780463 0.0021292637 0.00722872 -0.0063500823 -0.0026932403 -0.002351395 -0.004447749 -0.001281333 0.0048548947 0.0037372487 -0.003261941 -0.0036926046 -0.0023615384 -0.0032126664 0.003936678 0.009728598 0.0078555625 -0.007615981 -0.0064414 -0.009138716 -0.005965629 0.0036605264 -0.0059958263 0.0017139228 0.008898843 0.0033955756 0.0011831917 0.008922363 0.0064082253 -0.0014110011 -0.0062135365 -0.0010508341 0.0072605917 0.0075064856 -0.0040683546
at 0.009950868 0.0023997019 0.0051134536 -0.0056670844 0.0043789223 0.00024673264 -0.009572019 0.005101015 -0.009019107 -0.006477525 0.0027749066 0.009274862 -0.0021198723 0.006985745 0.0050762487 0.0040589226 -0.0061922357 0.005072703 -0.008315422 -0.0043273405 0.005456648 -0.00813939 0.0057438645 -0.0034933803 3.330783e-05 -0.0073518367 -0.006253063 -0.003310922 0.008591344 0.005353944 -0.009689429 -0.0065776175 0.0034375717 -0.008540701 0.006645993 0.0061732675 -0.00930843 0.008657365 0.007825089 -0.0018006102 0.0017788447 -0.0056962674 0.006216569 0.0077095055 0.0040597776 -0.008861625 0.0049342057 -0.003066299 -0.0022073246 0.006113939 0.0018538128 0.0046070945 -0.006286075 0.0052099065 -0.003540466 -0.00039312008 0.006213001 0.0040656915 0.007465589 -0.003919767 0.0035499868 0.007294309 -0.0032642612 0.005761798 -0.009419546 0.008861617 0.003752795 0.0053301887 0.0046237577 0.004575598 -0.0033022484 -0.006199673 -0.0022731943 0.0013851566 -0.0029231822 -0.008488924 -0.006277065 0.008332869 0.009341039 0.0059610717 -0.0041114367 0.0006928317 -0.008601166 0.006654559 0.0004598892 0.0073558115 -0.00535694 -0.0028512164 0.0028585906 0.0034699137 -0.006533605 -0.007368343 0.002037946 -0.009018943 0.0058074784 0.0054696538 -0.0038086802 -0.005640745 -0.008319645 -0.0019123297
full 0.006978777 -0.00020623942 -0.007967085 0.008891007 -0.00854733 0.0055402047 0.0064832782 0.0010075534 -0.008725234 0.0061566434 -0.00786899 -0.0050307126 0.009609075 -0.008268758 -0.007619604 -0.0049176505 0.0034581372 0.0019212484 -0.005568134 -0.003288738 0.008578082 0.009764625 0.009933202 0.0010356297 0.0040375036 0.0013736683 0.0016649689 0.004834406 0.0021862094 0.0003188639 -0.0031427157 -0.0065372745 0.007981444 -0.0059974664 0.0027765976 -0.0009167426 -0.0036363136 -0.0049325074 0.0032174357 -0.0058563645 -0.007504703 -0.0026391349 0.0046822764 0.0060476693 -0.0014457165 0.007294344 -0.0076131327 -0.0047277645 -0.007850619 -0.0060519543 0.0073129903 -0.009298225 -0.008647066 -0.009832849 0.009199955 -0.0026655928 0.0010052046 -0.0061349403 -0.0025536965 7.9376645e-05 -0.0025049686 -0.007384529 -0.0061909603 0.0025454839 -0.009480672 0.0011667598 -0.0020043368 0.008291954 -0.00041932135 0.006219129 -0.007093307 -0.007542082 0.005565285 0.0009311391 -0.005078235 -0.0026714248 0.008774252 -0.009175378 -0.0036594565 0.0009898685 -0.00022908044 0.009505729 -0.0019536107 -0.007095223 -0.00768906 -0.009913586 -0.0078112464 -0.006027132 -0.0059293346 -0.0013885108 -0.0005168254 -0.0047041816 0.002154101 0.003849198 0.00904702 -0.0046525155 0.0051347967 0.0072424444 -0.003739686 -0.0074452977
tunnels -0.003335894 -0.006892168 0.006491363 0.009390506 0.008274105 -0.008537039 0.005052426 0.0051123365 0.0056236293 -0.0083261775 1.5180155e-05 -0.0068259556 -0.0089142965 0.0024973955 0.0099351425 0.0064941295 -0.007064494 0.0023356762 -0.003910998 0.009921054 -0.008798827 0.009728773 -0.006512608 -0.0070094755 0.0016288299 -0.0006754424 -0.008515604 -0.00061272096 -0.00036385754 -0.0062645725 0.005749317 0.0031739164 0.008401287 0.0073897988 -0.006646422 0.0047931224 0.0056929574 0.005779454 0.0052003204 -0.004785114 0.0043163826 0.0013181121 7.2013834e-05 -0.0064537097 0.001530203 0.0052686846 -0.009215886 0.008605683 0.0029934375 -3.742962e-05 -0.003362824 0.0003535033 0.0060785515 0.0047610346 -0.005954427 0.007870523 -0.0006413813 -0.008161321 0.008866224 0.005071959 0.003631817 0.00790519 -0.0075195404 -0.005828606 -0.0020074171 -0.00409151 -0.0016043793 -0.0005771497 -0.008393986 0.0019030296 0.0025637897 -0.00083807524 0.0048736753 0.0014672412 0.005992634 -0.0022383267 0.008528627 -0.0015676966 0.0030780542 -0.003789642 0.006128416 0.0030754418 0.00053271855 0.008758124 -0.0078386925 0.009707709 0.0007889132 -0.00235479 -0.0041242666 -0.009101927 -0.0022159405 0.002689641 0.006580852 0.009070565 -0.008741799 0.009059622 -0.008839333 0.003732536 0.00802919 -0.0025160317
become -0.007837686 -0.008346459 0.001133981 -0.0007588099 -0.009503849 0.003068508 0.002295761 0.0045225 0.0043769246 0.0032130457 -0.009867012 0.0056927777 0.0042657317 -0.007751278 -0.0020966225 0.00033256784 -0.0006457017 -0.0009914228 -0.0055507976 -4.607616e-05 0.0044442313 -0.00064448547 0.00084598653 0.002075385 -0.0039957417 -0.0078519415 0.009133855 -0.009762124 -0.0025113146 -0.0012299713 -0.0076562106 0.0017752841 0.007954264 -0.0015628295 0.008097435 0.00033275707 -0.005774351 -0.0019915495 -0.0007642664 0.006234491 0.007119244 0.006196383 -0.006001365 -0.006947016 0.006129629 0.002474517 0.0053009675 0.00044708725 0.007871139 -0.0088744275 0.009898111 -0.008277268 -0.001693606 0.0062315287 -0.009236258 0.0043103914 -0.006988256 -0.0068549267 0.002271327 0.0017559996 -0.0027843087 0.007838088 -0.00700951 0.00048500637 0.008729912 0.0020913624 -0.00686655 0.0035958833 -0.0050949925 0.00061678304 0.0028376025 0.007635124 0.00741598 -0.0049102753 0.009549154 -0.0055015585 0.0076607484 -0.008000093 -0.0078110304 -0.0011357224 -0.008182326 -0.0034459294 -0.000583912 2.342945e-05 -0.009978059 -0.0065448848 -0.0073826243 -0.0003553508 0.005201489 -6.352123e-05 0.010027743 -0.003901147 0.00805514 0.0060715764 0.008305536 9.916111e-05 -0.00040293223 0.0018772262 -0.009895096 0.009011666
travels -0.002389886 0.007538794 0.0020190887 0.0028994784 -0.0012387021 -0.009925206 0.0014298855 0.0029374133 -0.009851274 -0.0039263894 -0.0023833788 -0.0050913338 0.003956918 0.0021083232 0.0043502655 -0.00648757 -0.006003664 0.004705384 0.006774823 0.0054862644 0.004800245 -0.0072284667 0.0081839105 -0.0069697844 -0.007680751 0.008514891 -0.0024893458 -0.009374327 -0.0031029365 0.0059896647 -0.002883639 0.0049436614 0.00010467476 0.0040361993 0.0011798015 -0.009288445 -0.003641975 0.008831 0.0015223782 -0.0058954936 0.007011648 0.007458028 0.007235501 2.5294357e-05 -0.009120002 -0.0034923498 0.0051143346 -0.006515649 0.009751135 -0.009775309 -0.008107667 -0.005330013 0.0060235867 -0.00770151 0.00863547 -0.009872655 0.0034983193 0.0032939096 3.4647517e-05 0.009561018 0.0051053124 0.00026184213 0.0048153866 0.0064198435 0.0030121778 0.009444906 -0.0013519841 -0.00836059 -0.0045152176 -0.0014719064 -0.007287033 -0.0015339741 0.007954898 -0.0050330963 0.0051223505 0.004336629 -0.0006815534 0.00106661 0.0057381033 -0.006649889 0.003872362 0.008928314 -0.0035461993 -0.007595924 -0.009210053 -0.009030622 0.0038927428 0.0051429286 0.0070624934 -0.001433395 0.0010091255 0.003045707 -0.009873447 -0.009433461 0.0046175197 -0.0084056 -0.0031529714 -0.0043287002 0.00595098 -0.0034619977
wonder 0.009985767 0.0005569507 -0.0051483456 -0.0036370144 0.0012678588 -0.0053866897 0.007422652 0.009072962 0.004290065 -0.0073756464 -0.0059627146 1.4738464e-05 -0.0010271306 -0.005528426 0.007943476 0.006220893 -0.0041874247 0.0023796172 0.005130816 0.002383664 0.008581246 -0.0012795798 -0.0065106205 -0.0008231246 -0.008332056 0.009858576 -0.008648547 -0.0014935173 -0.0028583973 0.00317075 0.0049700174 -0.008239638 -0.0043920316 0.00047364202 0.003997714 0.0051439987 -0.0013748357 -0.00062056916 -0.007844688 0.004548802 -0.0076522436 0.0032896327 -0.0034481415 -0.0077929012 0.0068812617 -0.00048194485 -0.00954486 -0.009391553 0.00058944616 -0.008165006 0.0037641148 0.0034361586 0.0033572442 -0.005629696 0.007982538 -0.008989908 0.007460305 -0.0006321407 -0.0014696666 0.003979039 -0.0025099672 -0.0044059027 -0.00239989 -0.0061980393 -0.00036119047 -0.0053651882 0.0046120756 -0.00952481 -0.0043834667 -0.009161433 -0.009620128 -0.00072934316 -0.008076235 -0.0056958487 0.0027952986 -0.0014493851 0.0031135185 0.008252075 -0.009643973 0.0060890242 -0.0079811 0.006556216 0.0074597187 0.008592661 -0.007970932 0.0033285047 -0.0078179715 -0.0012480187 -0.0052243145 -0.008520105 0.004956298 0.0044278437 -0.004043026 -0.0077913012 0.0035864075 -0.0039392645 -0.008839494 -0.0043904814 -0.0021643557 0.008756351
remarkable -0.006445405 0.0073261457 0.006106535 -0.0048920535 -0.0017619078 -0.002527574 0.0031479816 -0.0004115855 -0.0027887584 -0.009064412 0.00641243 -0.009630743 -0.008649363 0.0013871765 0.0029823342 -4.993273e-06 0.00036749226 0.0025690983 0.0017972189 0.0075367982 -0.0034308666 -0.0072098044 -0.007862735 0.007917553 0.0019408296 -0.0058090156 0.006365617 0.008460298 0.007930336 -0.006806398 -0.0051362617 -0.0020075773 -0.0066081365 0.004699426 0.005658386 -0.005961985 0.007196983 -0.0076563004 0.0061818706 -0.004637905 0.0019583765 -0.003276931 0.0033756287 0.0077319937 -0.0013715866 -0.004987565 -0.008583386 0.0036296665 0.004233765 0.0067042736 -0.004276617 -0.009747863 0.0068297083 -0.004550562 0.0044147163 0.008053706 -0.0039509884 0.0016208601 -0.0036084107 -0.006601914 -0.005683388 -0.0001527902 -0.0075088027 -0.001996837 -0.0024889177 0.006736057 0.0013553068 0.0058758147 0.0037935001 -0.003508362 -0.005098014 0.009680638 0.0070734774 -0.009052248 0.0052663493 0.008184285 0.009201994 -0.00806324 -0.0020075557 0.0010769254 0.0028936684 -0.0016127654 -0.0047266963 0.006473382 0.0069240504 -0.00040468207 -0.0058188015 -0.0043605356 -0.005142725 0.004275703 0.0005471679 -0.0023721862 -0.009087021 -0.0015041475 0.0064500486 0.006316211 0.0042319684 -0.0028876816 0.009067105 0.0005865507
Shire 0.0011332476 0.006173992 -0.006591827 0.0065328055 0.009793276 0.0036696782 0.0034366858 0.004203549 -0.0019473704 -0.008101777 0.001475856 0.00090050994 -0.0068017 0.0019607493 0.0054419395 -0.0071758097 0.0025089453 0.0077655935 -0.008620244 0.0035103608 -0.008562755 -0.0079349615 0.0070920163 -0.007559196 -0.0013703883 -0.007923892 -0.007867236 -0.007104914 0.0004062984 0.001798291 -0.007905463 -0.008049729 -0.0031801213 -0.0018287391 -0.0061680763 -0.004220789 0.0036116878 0.0030705477 0.0065920115 0.00424902 -0.000886021 0.0027644604 0.0090447115 0.0019066109 0.0018215867 0.001120844 -0.009286298 0.0053510275 0.0050450317 2.5627494e-05 0.009214808 -0.0057200803 0.0032486226 -0.0078104725 -0.008939372 0.002002688 0.004746606 0.00609734 -0.008686317 0.0043532974 0.0023956946 0.0041541844 -0.00067268946 0.005543309 0.0072938423 -0.008386541 -0.009932115 0.0070145037 -0.00095557823 -0.009374021 -0.0040846495 0.0011938892 0.008426207 -0.0016906623 -0.0010210519 -0.007366451 -0.00765337 0.001461318 -0.00047217493 -0.0076968647 0.00087732164 -0.008988157 -0.0024738084 0.0042146896 0.0011147739 0.0078293355 0.006585337 -0.0011880187 0.0049560703 0.0061295386 0.008735018 0.009078394 0.004928508 0.0046089035 0.0071862973 -0.0015666602 -0.005648524 0.008864696 0.0012106696 -0.0050509344
for -0.0008509113 -0.0052271136 0.009096089 0.0034051961 0.0042915116 0.006475649 0.008211182 -0.004715456 -0.006368462 -0.0037651658 -0.0037487494 -0.00947814 -0.000614422 -0.008102776 0.009793428 -0.0034314978 -0.006321133 -0.008104875 -0.0035614886 -0.0095895035 0.00079579005 0.005424898 -0.002846521 0.0076622427 -0.0018861715 -0.0072541796 -0.0031679359 -0.0031271307 -0.007117605 -0.009643087 -0.0040605674 -0.0015988008 0.0050105155 -0.007651884 -0.0049824333 0.0013974467 -0.0016736019 0.0035595368 -0.0018985668 0.004325078 0.007990281 -0.007914604 0.0037467622 0.0060024266 -0.0005593968 0.0067452663 -0.005435264 -0.0045968215 -0.007847708 0.00947645 -0.009368067 -0.0032856541 -0.00042191043 -0.004896196 0.009466538 -0.0068356185 -0.008021884 0.009238718 -0.008316418 0.009707199 -0.0041137077 0.005643173 -0.00039626376 -0.0039952123 -0.0075080753 -0.006234578 0.006845605 0.0063468497 0.00011970618 0.0064003686 0.0038409403 0.0038632296 0.0026945027 -0.009723705 0.009288153 -0.008206219 -0.0029962503 0.001420096 0.0052484334 -0.009212673 0.0016528568 0.0063808705 -0.0087821735 0.009562966 -0.00523867 0.009529695 -0.006490997 0.006598365 0.00937223 -0.009207273 0.00033204968 -0.007738873 0.008136761 0.009553539 -0.006011496 0.00082431745 -0.0022103575 -0.007762134 0.00083574833 -0.009922701
sixty 0.002626728 -0.0076872804 0.005670708 0.0075742435 -0.002546673 -0.0040390226 -0.009583117 0.004959198 0.0028935405 0.008723607 0.0032767681 -0.0029221263 0.0035613347 0.008621755 0.009257377 0.0076183844 -0.008557863 -0.007566422 0.0072621237 -0.0074615735 0.0032602793 0.008027792 -0.003186168 0.0067479904 -0.008163673 0.0064975014 0.0055546076 0.0033454422 -0.008136958 0.009188282 0.008231162 -0.0015674806 0.0041092318 0.0063530444 -0.0017420067 0.005512724 -0.0040359125 -0.0012654779 -0.0012258649 -0.004156977 -0.0007129124 -0.0076996563 0.003636071 0.009068028 0.004789262 0.00637098 -0.004747152 0.0048513273 -0.0066881506 -0.004970552 0.009902063 0.0063820537 -0.0049779806 -0.006110878 0.007223342 0.0026998147 0.006590072 -0.006758988 -0.0009822143 -0.0009345078 -0.00023036772 0.0022018848 -0.006741362 0.0043776566 -0.0027433378 0.0083739795 -0.0010240328 0.009169491 -0.0008756133 0.005214938 -0.0076156235 -0.009081705 -0.00033395382 -0.002264903 0.009987281 0.0045301095 -0.0055630454 0.0073674615 0.00058904255 -0.009549405 0.0056877383 -0.0019859022 -0.009433735 0.008712714 0.0072351685 0.00853616 0.00038761698 0.007686839 0.0051951995 -0.0069244327 0.009315539 -0.00356627 -0.009743395 0.008534597 -0.0052781813 0.008380098 -0.007829851 0.009271415 -0.005906917 0.0039810142
years 0.009787576 0.0041984757 -0.002124943 -0.0049548084 -0.009721452 0.004177705 0.007456626 -0.004699938 0.0059106257 0.006808782 -0.009036831 0.0020728747 -0.0068489825 -0.0043289294 0.00086359633 -0.007041526 -0.0041492963 -0.0075202165 -0.0070188227 -0.0069550304 0.009923946 0.00833761 -0.00017478509 -0.002612363 0.006242244 0.0013574542 -0.009025568 -0.0070524085 0.001026206 0.007959574 0.0031968504 0.009847924 0.0065534627 0.00027526563 0.008654202 0.009027316 0.008063729 0.009402505 -0.009396806 0.0035136065 -0.007805019 -0.007148409 -0.008443128 0.003206068 -1.09608645e-05 -0.0063671884 0.005544938 0.007895193 0.0042914515 0.007837769 -0.004257228 -0.0064088823 0.0039905254 -0.0029410003 -0.007175293 0.0036773174 -0.0033226917 -0.005203948 0.0026307434 0.006867678 0.0063847015 0.00013858985 0.008659348 0.00293652 0.006577317 -0.00087921927 0.0021153283 0.006171828 -0.009818946 0.0058305846 0.0012797697 0.0061002853 -0.0014416383 -0.0027021316 -0.005566467 -0.0028473805 -0.0025752592 -0.005152571 0.0009733123 0.007995437 0.0051151267 -0.007628814 -0.0074177175 -0.0028939177 0.0038977384 -0.009327447 0.0061474536 0.0031218412 -0.0028172 0.009204483 0.008085295 0.00070393266 0.004825365 -0.009319248 -0.008773817 -0.002955825 0.009296109 0.0032212252 0.0056208335 -0.0067687673
ever 0.0042458535 0.0003947525 -0.0009138347 -0.0032383115 0.0049691023 -0.009129264 0.0051470227 0.005716329 -0.0024580369 -0.0042330576 -0.0074168327 -0.0064069564 -0.0051116776 0.0031557973 -0.004783328 -0.0012122747 -0.008929017 -0.0035171728 -0.0007830595 -0.007979445 0.0032646926 0.009768988 0.004411457 0.0018718413 -0.004877103 -0.0011221363 0.0022110948 0.0017449951 0.008801672 -0.0009092146 0.006997998 0.005788093 0.0030474523 0.007296489 -0.004946665 -0.00392271 0.006987588 0.008613716 0.0031344742 -0.0040943464 0.007645778 0.0027158267 -0.0002476298 0.008871619 0.0043171886 0.003935784 -2.2153688e-05 -0.008935125 -0.0031165811 0.002441006 -0.0055838325 0.0070993206 0.00745162 -0.008971324 -0.0053818584 -0.005981925 -0.00065477454 -0.0018071468 -0.0020518997 -0.0021928493 0.0035568713 0.009596715 -0.0045773783 -0.0082827 0.0037445659 -0.0064345486 0.00668107 0.0026822954 -0.007897936 -0.0077451663 -0.009259124 0.0023762968 0.0027511797 0.002613141 0.00019330648 0.0010375418 0.0030807909 -0.0015698794 -0.008029976 -0.0006219193 0.0036815724 -0.0025785372 -0.0021448391 -0.0022412338 0.0072525437 -0.0030529897 0.009468954 -0.0038725093 -0.009958788 -0.0065322374 -0.00433606 0.0012384508 0.0051258947 0.0021139155 0.009070074 0.00089235336 0.005654359 0.00015096905 -0.0020997287 0.0062111854
since 0.0020193087 0.008259695 -0.0082975235 -0.008752119 -0.0005409515 -0.001892829 -0.002347741 -0.0005953157 -0.0050706733 -0.00802021 0.008254425 -0.0033411551 -0.002843275 -0.0016452015 -0.0012307597 -0.009189159 -0.0017992663 -0.001348027 0.008648293 -0.007960443 -0.0047497023 -0.0018860555 0.0028854883 -0.006020081 -0.0055474555 -0.0079651475 0.005532079 -0.008717095 -0.003248185 0.00029382945 0.0014490497 -0.009941127 0.008659907 -0.002055372 0.00035226703 -0.008793196 -0.008167935 0.0037706005 0.00401258 0.0029851748 0.005845773 -0.0069301603 -0.001245743 -0.002724408 -0.0014065563 0.0044774804 0.0013715756 -0.007439362 0.0032385266 0.0062564625 -0.0061026667 0.0032297052 -0.004312105 0.00882676 0.0041302075 0.0020369852 -0.0010193908 -0.009108195 0.008654691 -0.0018175113 0.007374895 0.003772235 -0.00825876 -0.00061668514 0.0027457261 -0.0025650286 0.009732382 -0.0049881507 -0.0071646417 0.0037977588 -0.0035697746 -0.0068882382 0.002034911 0.0052708425 -0.0054975892 -0.0043804515 -0.00717654 0.0015494394 -0.0047564926 0.008435508 0.0007221794 0.0018632972 -0.0033373034 0.0073791887 -0.00066037657 -0.008212486 -0.007342117 0.0002062416 0.0077362643 0.0030871534 -0.005322231 -0.0067531443 -0.009854483 0.003922988 -0.009518245 0.0031844045 0.0016626811 -0.00082174776 -0.009953121 0.00588423
disappearance -9.2168644e-05 -0.0099319285 -0.0075356783 0.008572503 0.0018861488 -0.008192521 -0.0008049282 0.0054247268 -0.0093302755 -0.0068897675 -0.0010293886 -0.00977163 0.0004735405 0.0019515732 0.008542111 0.0009814758 0.0013053666 0.004879168 -0.004297012 0.00722174 0.00015828318 -0.00067642174 -0.009694838 0.00051210896 0.0067883856 0.0017621943 -0.008101048 -0.0033259706 -0.006037441 0.006029002 -0.006467659 0.0052597527 -0.005255819 -0.0068332544 -0.0075867143 0.0038227718 -0.0087901475 -0.005711667 -0.0070624053 -0.0043099034 -0.0040373732 0.0014857458 0.0064786267 -0.0011990468 -0.0054812822 0.0015523216 0.0056374194 -0.005270006 -0.005340257 0.005171255 0.006272331 -0.0077706883 0.008210437 -0.009851801 -0.0074182455 -0.0058784345 0.001820037 5.5264893e-05 0.003472192 0.0070222747 0.00478657 -0.0032103898 -0.0064318567 -0.008251965 -0.00047613267 0.009731337 -0.007673567 0.0036524967 0.0043711984 -0.0043371185 -0.006967321 -0.005438942 -0.005036895 -0.0070005064 0.005940091 -0.007770696 -0.0029377271 0.00437866 0.00017878697 -0.007684138 -0.0046931216 0.0035940695 0.0025476108 -0.001953479 -0.000723927 0.0025471642 0.0014353762 -0.0026428082 0.0053489436 -0.0076492815 0.006371696 -0.0099959215 -0.0022497813 0.0066745784 -0.0035943114 0.0065324353 0.0054427534 -0.0074024014 -0.00023118299 -0.0044921613
from -0.008054963 -0.00089650083 0.006382153 0.00873595 -0.0050383382 -0.0026709528 -0.0060204463 0.0011888754 0.002646181 -0.009848236 0.0023905432 -0.00883526 0.00039667846 0.004759496 -0.005249949 0.0002563004 -0.0021858788 -0.0086973375 -0.0024089306 0.0044305334 -0.008565775 -0.0059229727 -0.00053498655 0.008033712 0.0013984371 0.009768957 -0.00767844 0.008999371 -0.0047437153 -0.006341422 -0.00783048 0.0018514696 -0.0027495376 0.0075324043 -0.00051978027 0.0025272418 0.0059581446 -0.0086518 -0.0020735045 -0.0047942884 -0.008669347 0.0034176842 0.0024090514 -0.0023912436 -0.0018981168 -0.0067338394 -0.0032731078 0.001297202 0.007743549 0.007071058 -0.0035862462 0.0035980875 -0.0025734368 -0.004738495 -0.003624457 -0.006152604 0.00349542 -0.007793086 -0.007522327 -0.0044940817 0.0073996224 0.0018176311 0.005455106 0.0082233595 -0.006234605 -0.0046005156 0.007673955 0.0049596587 0.004643395 0.009001115 0.008802804 -0.0026589849 0.0010493934 0.005475438 0.008906769 0.009838133 -0.008250654 -0.005134577 0.0049966467 0.0009476897 0.00014937464 0.0075115007 0.006377326 -0.007228655 -0.0025962498 -0.008498853 0.00706037 0.002781451 -0.0022251105 0.0018827813 0.0076868935 0.008124074 0.006177218 0.0031597023 0.0015659266 0.008138303 0.001324499 0.0004335612 -0.009536599 0.0025156639
unexpected -0.008456999 0.0064604892 -0.0057897125 -0.0017481798 0.00097276084 -0.001905079 -0.009103549 0.004012317 -0.006590699 -0.008815493 0.0038924003 -0.0007719514 0.0065085148 -0.0070116576 0.00078801403 -0.0006972811 0.005738628 -0.009743147 0.0059331898 -0.009000029 -0.0077771284 0.0007390133 -0.002649542 -0.0038884336 -0.005311582 0.0041170684 -0.009346325 0.0011933293 0.0042052777 -0.00025650495 -0.00049242086 0.007174667 -0.009567037 -0.0090247 0.004442833 0.008740258 -0.00779352 -0.008309503 -0.0006496977 -0.009032714 0.0021256441 0.009224702 -0.006124646 -0.0067488886 0.008921333 -0.0007700267 -0.00374802 -0.0027188496 -0.008752966 -0.004630152 -0.004136807 0.00024197188 0.0006979183 0.0076127453 0.006824283 -0.0015060622 -0.009976556 0.0025929061 -0.0061147246 0.009117576 0.0037970287 -0.0010196847 0.006611885 -0.0034930292 -0.0036832187 -0.0003123554 0.008415548 0.0059396736 0.0015467816 0.0037765042 -0.0029913238 0.009271403 -0.007129509 -0.003241317 -0.005288152 0.008723469 -0.0031259083 -0.002386188 0.0071511944 -0.009698262 -0.0029111183 0.0029055013 -0.006266577 0.008766277 0.0011638184 -0.0052347244 0.004945504 0.007993017 0.0009406295 0.0068297717 -0.0068013063 -0.0036312675 0.0099300025 0.0056597614 0.0016055133 -0.0035062202 0.004433262 0.0025161216 0.008370837 -8.66545e-06
return 0.008596091 -0.005858823 -0.007609053 -0.0013965772 0.0029788536 -0.0019919914 0.0058988384 -0.008393585 -0.009018277 0.007567786 0.0063313744 -0.0040938063 -0.004020282 -0.0035454652 -4.644361e-05 0.009075499 0.0009552077 -0.0020497723 -0.003420619 -0.0020990267 -0.009194663 0.0068276944 -0.009026725 -0.0030934163 -0.0071193064 0.009059706 0.0057886285 -0.00047737508 0.003913595 -0.0024242492 0.009813502 -0.0036292174 0.004862852 -0.0037996492 0.00954494 0.009510755 0.006236365 -0.00024830207 -0.0016913953 -0.0086529525 0.009333358 -0.0084434 -0.0065592476 0.0055832523 -0.0022733645 0.007973246 -0.007872264 0.009190969 0.0022543478 -0.008555607 0.0039495844 -0.004955941 0.006377537 0.006576961 -0.008761505 0.0064633302 0.0052622217 0.0064821807 -0.007057925 -0.0065518166 -0.0088655045 0.0052549173 -0.004013447 0.0048052967 0.004792269 0.008086818 0.0022385635 -0.0010805648 0.0014520083 0.0029853103 -0.008771509 -0.005968124 -0.0009458639 0.004886144 -0.00015389347 -0.009672564 -0.00062462233 0.0071434528 0.006333449 0.0034712055 -0.0045988704 -0.0037219482 -0.0020845125 -0.005995544 -0.00860034 -0.00056170806 0.001805972 0.0048289928 0.0036040614 0.008562668 -0.0067587444 0.009276401 -0.0033347732 0.00080493913 -0.0042563495 -0.004048034 -0.0014838063 -0.007512838 0.0089812 0.0045548757
The -0.0022547874 0.001913667 0.0077984245 -0.0056157815 0.0038210358 0.00068992574 0.0029207645 -0.0020936378 -0.009891584 0.005863729 -0.0014459982 -0.008340303 0.00070788607 -0.0061670546 0.0076896064 -0.0064075044 -0.0016482093 -0.00039780245 -0.00429623 -0.0034451953 0.0073490315 0.0018599723 -0.0093615865 -0.00028416282 -0.009531356 -0.0031522564 0.004949888 0.0037044473 -0.0057672295 0.001481298 0.0058170846 -0.0075031035 -0.0033759472 -0.002503228 -0.008908244 0.0021259745 0.0065070875 0.0024496915 0.0023605754 -0.0008180339 -0.00081767066 -0.0062644025 -0.0004962623 0.0066023176 0.0029934444 0.00054038776 0.007818462 0.0027911724 -0.0074204034 0.007314067 0.009568936 -0.00909914 0.0072245956 -0.007629445 -0.00036409652 0.0045987265 -0.005750253 -0.007960358 -0.007303473 -0.009886536 -0.006670128 0.009538398 0.002933519 -0.009053983 0.008508976 0.0072435015 0.007857446 0.009636567 -0.008700777 -0.0021872064 0.0020996933 0.0024411369 0.004847606 -0.0077294344 0.0048424746 0.009924134 -0.008953975 0.007885359 0.003218299 -0.0041694255 -0.0015555391 -0.00851282 -0.007510448 0.00551758 -0.0031356583 0.00996645 -0.007995464 -0.007041913 0.0061531276 0.007889392 0.0037082273 0.0072344197 0.006503955 -0.0057899426 0.008730794 -0.006334355 -0.0028674265 -0.005992028 0.0061060344 -0.0043997266
riches 0.0030850635 -0.0015865574 -0.0012030846 -0.0058471314 -0.005761689 -0.0035999515 0.000336898 0.0015082385 -0.0033315392 0.0019164681 -0.0056938706 0.00996295 -0.00082439417 -0.006947841 -0.00184276 0.007925498 -0.0011028006 -0.0051598237 -0.008051757 -0.0059043393 -0.0031983487 0.0077333865 -0.0072118724 0.0014388597 -9.138717e-05 0.003952968 -0.007969372 0.007960015 -0.0027988052 0.0053260177 -0.009503054 0.005087988 -0.008254613 -0.0032773188 -0.0011906242 -0.0036177197 -0.0007261952 2.0413965e-05 0.0044941283 -0.0022425822 -0.0040059104 -0.0061833765 0.00831825 0.0046303216 0.009123219 0.0054790345 -0.00462776 0.008272957 -0.00696195 0.0030438204 -0.0033381972 0.00024567667 0.0037671248 -0.0028439963 -0.0044315537 -0.0019455088 0.000517263 0.0064514456 -0.0058669313 0.004676356 -0.003713533 -0.007960849 -0.0055949334 0.0018676452 0.008795799 0.007903317 0.009177836 0.006915997 -0.0030014052 -0.0024149811 0.008808519 0.0065058675 0.0060256016 0.0068740686 0.0016338294 0.0023951295 -0.008202338 0.0075368546 0.0094526885 -0.007088719 0.0011436775 0.00874572 0.0036308912 0.0069607818 0.0076254522 -0.0019293237 0.008883712 0.006000433 -0.0018812929 7.4066564e-05 0.009736217 0.0058180545 -0.006686295 -0.0034986758 -0.003469336 0.003117269 0.0011258384 -0.008613454 0.0021892528 0.009610578
brought 0.0023599733 0.0042817397 0.001957031 0.008121036 0.008881666 0.003153255 -0.002428704 0.0036285892 -0.0077194995 0.0080076065 -0.004014784 0.0099143265 -0.009586544 -0.0025526017 0.00889509 -0.0040800446 -0.0019565378 0.005033826 0.0092793545 -0.00037460978 -0.0067926166 0.009993021 -0.009518058 0.0012463288 0.0055669895 -0.007830983 -0.005635277 -0.009120259 -8.522972e-05 0.005008963 -0.008219074 -0.0030856903 0.008393949 -0.004481373 0.0031678514 0.0035306136 -0.0035771886 -0.0051698005 0.008312268 -0.0025226332 0.00895823 -0.0024192373 0.0030516875 0.0056030876 0.00057813554 0.004392914 -0.0059701526 0.008406874 -0.0016407444 -0.0044089817 0.005115548 0.009910632 -0.0056677954 0.00081973604 0.0043370104 -0.0027522505 0.0006304914 0.00882142 0.0077169216 -0.0064578755 -0.0032058912 0.009212105 -0.00030696765 -0.009556271 -0.00072140904 -0.0067948936 0.00092227577 0.0008353143 -0.0044099693 -0.0045831976 0.008806933 0.0045926096 0.002582347 0.0018480803 0.00824604 -0.0049976287 0.0061096344 -0.0009894528 -0.0076534213 -0.009696153 -0.0016835567 0.008118054 0.002187095 -0.008978172 0.0012192634 -0.0036339764 -0.0040485803 0.008129988 0.005827046 0.00036419948 0.0024601228 0.00089880376 -0.009914621 0.00298703 0.0071949027 0.0039901934 0.0024757984 -0.0035514582 0.0023422802 -0.007644654
back 0.0042258734 0.0023877302 -0.00041431154 -0.0005895583 0.002639448 0.0022043993 0.0014928118 0.009161091 0.0035017028 0.0013813428 -0.00295408 -0.00608673 -0.009312203 -0.0032554285 0.004366057 0.007569064 0.0006320595 -0.0047945944 0.0035935184 -0.003936872 -0.0007469947 0.008882101 0.008187923 -0.000433082 -0.0059241634 0.0037022347 0.009792309 0.008677819 -0.0019201403 0.0071693314 0.009279098 -0.009557075 0.008884544 2.808485e-06 -0.0051959734 0.0036978733 0.008965207 -0.007247226 0.0068541463 -0.0064401384 -0.0077841873 0.005493417 -0.0045738188 0.004782128 0.0073903026 0.0096584335 0.0056849536 -0.008868932 0.0032460245 -0.00899166 -0.00035875777 0.009769619 -0.0051015154 0.0040770853 -0.005737267 -0.008043868 0.008011869 0.0032393648 0.0073576947 0.0029455274 0.0011698616 0.00371116 -0.008425153 0.006604559 -0.0044805496 0.00463922 -0.0054706326 0.0010697423 0.003992949 -0.0024703771 -0.0075464076 -0.0060171075 -0.009928873 0.009672838 -0.004380975 -0.0010624492 -0.009008612 -0.004576133 -0.0048791333 0.0030027782 0.0056437594 0.0035045666 0.009826583 0.0019076713 0.00987294 0.0075483317 0.002775748 0.0021586511 -0.0075013624 -0.0023556005 0.005677986 -0.0081444075 0.0022542838 -0.007587895 0.009659485 -0.00012477813 0.0009188228 -0.004785896 0.0061301496 -0.0071390504
When -0.007410362 0.0066182576 -0.0033724105 -0.00091466424 0.005359088 0.0045699333 0.0062081125 0.007027713 0.005616398 -0.00891883 0.005144527 0.009125321 -0.0040063607 0.0010816014 -0.0032792091 -0.0034029423 0.008693296 -0.00027982713 0.0034074627 -0.0055328486 0.0057739685 -0.0033548998 -0.0049688267 0.002191869 0.0097215315 -0.006131165 0.0035739136 -0.0009928012 -0.0071910145 -0.0043305624 -0.008219322 0.005589943 -0.0027526962 -0.0051993635 0.0009980166 0.00458894 0.009498108 -0.009735213 -0.0002757585 -0.001229682 -0.0027000736 -0.00053002476 0.008129929 -0.0018766213 0.009334334 0.0003780532 -0.0010646307 0.0069046007 0.006942637 0.00045891522 -0.00030289293 0.0063429163 -0.0038443613 0.0045933365 -8.502126e-05 -0.0060780393 0.006443784 -0.0040332736 0.0022166455 -0.00684589 0.0026867497 0.00557614 0.0051115416 -0.008073871 -0.005907736 0.007128726 0.0031156028 0.0010988164 -0.0061874557 -0.0013832616 -0.009224623 0.0012573279 -0.004568696 0.0007552326 0.004485375 0.0023915924 -0.0071189846 0.0008507061 -0.006719929 -0.0038795162 0.0018995845 0.0079723075 -0.0065113916 0.002336303 0.008144179 0.009908818 0.006166598 -0.007388672 0.0038613058 0.0088277925 0.00414773 0.0025157356 -0.0015901172 0.0035783374 0.004153396 0.008824278 -0.0038112819 -0.008750725 0.0065029035 -0.006219412
